Neuron=0 weights:
[0][0][0][0][0][0][0][0][0][0][0][0][2.52033e-09][-2.64013e-10][-6.43499e-09][-2.68125e-10][0][0][0][0][0][0][0][0][0][0][0][0][0][0][0][0][4.15638e-10][5.57737e-10][-3.54754e-08][6.48669e-07][1.91718e-06][2.71462e-06][5.58506e-06][7.6605e-06][6.87557e-06][4.6915e-06][3.057e-06][1.4977e-06][7.75934e-07][1.63905e-06][1.03355e-06][1.79652e-07][1.58725e-08][3.20088e-07][2.61871e-07][2.78135e-07][0][0][0][0][0][0][3.84903e-10][2.10918e-09][3.55511e-07][4.16994e-08][-4.3891e-07][-4.72828e-07][2.86538e-06][9.22968e-06][2.21306e-05][3.33359e-05][4.43744e-05][4.20321e-05][3.74218e-05][3.3864e-05][2.00975e-05][-3.5308e-07][-2.89002e-05][-5.0706e-05][-4.04328e-05][-1.78283e-05][-5.62602e-06][-2.26253e-06][-3.55885e-07][1.77167e-07][0][0][0][0][5.62745e-09][3.68391e-08][8.30609e-08][-2.75847e-07][-1.75458e-06][-3.35276e-06][-5.52938e-06][-8.25838e-06][-8.57147e-06][-9.21162e-06][-2.06714e-05][-4.85828e-05][-6.63486e-05][-0.000105335][-0.000149915][-0.000175605][-0.000173786][-0.000164015][-0.000114277][-5.32446e-05][-2.24214e-05][-1.25757e-05][-4.83623e-06][-4.73143e-07][-7.41332e-10][0][0][-5.72785e-09][2.18664e-08][-3.68971e-07][-2.67434e-06][-1.12336e-05][-3.18888e-05][-7.40499e-05][-0.000139571][-0.000233159][-0.000359651][-0.000509681][-0.00069662][-0.000926451][-0.00111855][-0.00127617][-0.00128429][-0.00112368][-0.000886858][-0.000646199][-0.000416902][-0.000238807][-0.000108533][-4.82466e-05][-1.89659e-05][-4.42596e-06][-3.33355e-07][-3.69414e-09][0][0][-2.00944e-07][-3.38234e-06][-2.22583e-05][-7.14464e-05][-0.000156977][-0.000294292][-0.000491703][-0.000715246][-0.000988828][-0.00134882][-0.00177161][-0.00219865][-0.00263995][-0.0030232][-0.00304795][-0.00269941][-0.00214343][-0.00154231][-0.00101998][-0.000623604][-0.000325285][-0.000143675][-5.2584e-05][-1.24538e-05][-2.92844e-06][-7.00731e-11][0][-3.56644e-09][-1.10185e-06][-1.74075e-05][-6.74062e-05][-0.00016336][-0.000317062][-0.000529235][-0.00077638][-0.00107716][-0.00151708][-0.00204736][-0.00256502][-0.0029852][-0.00334043][-0.00360614][-0.00359312][-0.00331809][-0.00281983][-0.00223472][-0.00165252][-0.00109363][-0.000627531][-0.000274127][-9.822e-05][-3.04107e-05][-7.7754e-06][-5.25036e-07][-6.80306e-10][-5.86523e-07][-5.72059e-06][-3.54534e-05][-0.000113854][-0.000244509][-0.000437072][-0.000690319][-0.000979499][-0.00139763][-0.00198107][-0.00253964][-0.00292714][-0.00308161][-0.00321885][-0.00339739][-0.00337254][-0.00319875][-0.00297563][-0.00263484][-0.00213825][-0.00155443][-0.000915671][-0.000430509][-0.000149854][-5.3857e-05][-1.34109e-05][-6.98517e-07][-7.04261e-09][-1.58856e-06][-1.74759e-05][-6.72915e-05][-0.000159564][-0.000295522][-0.000484681][-0.000736082][-0.00110919][-0.00162686][-0.00227437][-0.00275915][-0.00295225][-0.00289523][-0.00287433][-0.0029763][-0.00304651][-0.00297047][-0.0029442][-0.00279366][-0.0023689][-0.00179948][-0.0011554][-0.000560321][-0.000209711][-6.83511e-05][-1.36388e-05][-7.9883e-07][-6.7026e-10][-2.47381e-06][-2.58013e-05][-7.67476e-05][-0.000165954][-0.000297903][-0.000481077][-0.000793023][-0.00125583][-0.0018685][-0.00247826][-0.0028252][-0.0027818][-0.00257276][-0.00249146][-0.0025306][-0.0026275][-0.0027187][-0.00281093][-0.00274898][-0.00232426][-0.00177038][-0.00117695][-0.000584285][-0.000207594][-5.87585e-05][-1.36451e-05][-9.58148e-07][-2.57691e-10][-2.50814e-06][-2.07634e-05][-5.53477e-05][-0.000128883][-0.000260372][-0.000464475][-0.00081543][-0.00135275][-0.0020171][-0.00249354][-0.00264013][-0.00248101][-0.00221817][-0.00208333][-0.0020963][-0.00219707][-0.00241411][-0.00268992][-0.0025697][-0.00206479][-0.00153919][-0.00102773][-0.000520103][-0.000170266][-3.46193e-05][-6.62288e-06][-5.17074e-07][-1.08436e-09][-6.00211e-07][-1.14914e-05][-2.71574e-05][-7.34379e-05][-0.000193185][-0.000415034][-0.000827879][-0.00144287][-0.00208595][-0.00244928][-0.00253473][-0.00237716][-0.00209884][-0.00195271][-0.00197446][-0.00208113][-0.00243313][-0.00262415][-0.00231423][-0.00172772][-0.00125696][-0.000857724][-0.000440557][-0.000128753][-1.32947e-05][-2.74682e-06][-1.83315e-08][-1.14773e-09][-3.99591e-08][-3.53379e-06][-9.84174e-06][-3.74867e-05][-0.000145137][-0.000402804][-0.000889698][-0.00157045][-0.00217565][-0.00252898][-0.00266726][-0.00254109][-0.00227992][-0.00213691][-0.00215248][-0.00236766][-0.00269768][-0.00262383][-0.00211889][-0.00146267][-0.00102522][-0.000721643][-0.000384975][-0.000100488][-6.13542e-06][-1.66179e-06][-2.45486e-08][-4.21394e-10][-4.75516e-08][-1.35202e-06][-5.43227e-06][-3.4983e-05][-0.000161929][-0.000469867][-0.000993728][-0.00162054][-0.00216172][-0.00250901][-0.00269287][-0.00272308][-0.00251645][-0.00235562][-0.00243671][-0.00281792][-0.00300065][-0.00269697][-0.00203731][-0.0013846][-0.00097657][-0.000666701][-0.000340367][-8.05444e-05][-6.72907e-06][-1.75455e-06][8.73181e-08][-4.25262e-08][-6.84174e-08][-4.19633e-07][-4.52047e-06][-5.09317e-05][-0.000220515][-0.000563503][-0.00105158][-0.00153659][-0.00192602][-0.00224466][-0.00243463][-0.00257763][-0.00254644][-0.00249043][-0.00269438][-0.00308596][-0.00312556][-0.00276719][-0.00214323][-0.00153154][-0.00106371][-0.000664545][-0.000312564][-7.52641e-05][-6.8739e-06][-9.70405e-07][3.25708e-10][-1.39246e-08][-2.76908e-08][-1.07014e-06][-6.96795e-06][-8.39594e-05][-0.000301483][-0.000649686][-0.00102413][-0.00136339][-0.00161156][-0.00182608][-0.00198347][-0.00219768][-0.00225922][-0.0022835][-0.0026148][-0.00297593][-0.00298947][-0.00269927][-0.00225042][-0.00173696][-0.00116701][-0.000682253][-0.000295079][-7.49776e-05][-7.01547e-06][-1.70299e-06][4.33016e-08][-4.51756e-13][-1.44095e-08][-1.98023e-06][-1.32689e-05][-0.000126729][-0.00038638][-0.000724995][-0.00101608][-0.00122942][-0.0013547][-0.00144648][-0.00156861][-0.00178599][-0.00181713][-0.00193539][-0.00238486][-0.00273738][-0.00275153][-0.00256885][-0.0023002][-0.00183427][-0.00119218][-0.0006428][-0.000262513][-6.64495e-05][-6.1877e-06][-2.2978e-06][-2.4919e-07][0][-1.6365e-08][-3.33848e-06][-2.46867e-05][-0.000187856][-0.000479323][-0.000811598][-0.00108117][-0.00125099][-0.00126609][-0.00121674][-0.00124684][-0.00131999][-0.00131069][-0.00157245][-0.00213684][-0.00252908][-0.00263256][-0.00260427][-0.00238218][-0.00182236][-0.00109474][-0.000535214][-0.00020842][-5.76641e-05][-7.27551e-06][-2.7592e-06][-3.0999e-07][-6.56817e-10][-4.41815e-08][-8.8342e-06][-4.60904e-05][-0.00025229][-0.000611019][-0.000957745][-0.00122529][-0.00140885][-0.00140927][-0.00132748][-0.00120238][-0.00114399][-0.0011675][-0.00144848][-0.00198671][-0.00241971][-0.0027094][-0.00274055][-0.00241381][-0.00169202][-0.000905207][-0.000436841][-0.000170335][-4.4134e-05][-1.34107e-06][-4.15824e-07][-3.16115e-08][5.82891e-13][-2.94028e-07][-1.51735e-05][-7.41113e-05][-0.000314245][-0.000755827][-0.00117916][-0.00151795][-0.00174183][-0.00178743][-0.00167708][-0.00145843][-0.0013721][-0.00144193][-0.00172085][-0.00213011][-0.0025498][-0.00285279][-0.0027746][-0.0022555][-0.00143133][-0.0007558][-0.000373954][-0.00014921][-3.72297e-05][-4.13591e-06][-6.74691e-08][1.05201e-08][0][-3.70331e-07][-1.52743e-05][-8.66964e-05][-0.000335177][-0.000830862][-0.00137901][-0.00189852][-0.00222281][-0.00234219][-0.00234592][-0.00225049][-0.00218214][-0.00226693][-0.00243168][-0.00259714][-0.00283264][-0.00288027][-0.00256243][-0.00184475][-0.00111397][-0.00057659][-0.000288618][-0.000113185][-3.23557e-05][-5.82843e-06][-9.12363e-07][2.01741e-09][1.65031e-11][-2.26882e-07][-1.01926e-05][-6.99044e-05][-0.000268783][-0.000727392][-0.00138928][-0.00208731][-0.00257772][-0.00289274][-0.00317516][-0.003332][-0.00340136][-0.00336515][-0.00325465][-0.00311548][-0.00300775][-0.00270519][-0.00208372][-0.00130737][-0.000704545][-0.000364985][-0.000179486][-7.05764e-05][-1.89061e-05][-4.91566e-06][-1.0983e-06][-1.21927e-08][1.59873e-11][-2.60049e-08][-8.14183e-06][-4.83741e-05][-0.000168409][-0.000484444][-0.00106528][-0.00179731][-0.00245907][-0.00299898][-0.0034763][-0.00381503][-0.00395865][-0.00385201][-0.00355974][-0.00314729][-0.00265507][-0.00204467][-0.00132166][-0.000694342][-0.0003635][-0.000183221][-8.60888e-05][-3.10356e-05][-6.84836e-06][-1.75728e-06][-3.96377e-07][-2.25096e-08][0][0][-4.31359e-06][-2.45563e-05][-8.2611e-05][-0.000231442][-0.000549237][-0.00107439][-0.00169044][-0.00222448][-0.00268985][-0.00307533][-0.00323045][-0.00311106][-0.00271871][-0.00215946][-0.0015515][-0.00101564][-0.000577824][-0.000292569][-0.000141353][-6.66757e-05][-2.76105e-05][-8.7932e-06][-1.56718e-06][1.93042e-08][3.29971e-09][0][0][0][-8.13314e-07][-1.00288e-05][-2.99764e-05][-7.58008e-05][-0.000182101][-0.000376202][-0.000671368][-0.000967594][-0.00122079][-0.00137246][-0.00130643][-0.00118537][-0.000992695][-0.000768422][-0.000528258][-0.000347143][-0.000207867][-0.000105068][-4.27458e-05][-1.81175e-05][-6.54869e-06][-3.01296e-07][-1.81322e-07][6.42792e-09][1.27435e-08][0][0][0][1.39802e-08][-6.61542e-07][-5.77558e-06][-2.156e-05][-5.31398e-05][-0.00011166][-0.000204004][-0.000283636][-0.000351637][-0.000365495][-0.000339167][-0.000298125][-0.000272314][-0.00023241][-0.000167295][-0.000134187][-8.56023e-05][-3.58626e-05][-1.40484e-05][-7.61635e-06][-1.94077e-06][1.18818e-06][6.58557e-08][2.84838e-08][1.35227e-08][0][0][0][0][-2.6095e-10][-2.13228e-06][-7.72058e-06][-2.16014e-05][-5.08639e-05][-9.97728e-05][-0.000131084][-0.000160305][-0.00017122][-0.00015863][-0.000158306][-0.000150055][-0.000116649][-7.93826e-05][-6.69505e-05][-4.1626e-05][-1.32013e-05][-6.02662e-06][-3.64574e-06][-1.87201e-06][-4.45307e-08][-2.75903e-08][-3.45317e-08][0][0][0][0][0][0][-4.36966e-07][-1.52723e-06][-2.90096e-06][-2.60988e-06][-3.0742e-06][-7.53144e-06][-1.44197e-05][-1.50713e-05][-1.16805e-05][-1.70969e-05][-2.58146e-05][-2.10788e-05][-1.58423e-05][-9.97936e-06][-3.62326e-06][-5.55818e-07][-1.01509e-06][-7.36212e-07][-1.14983e-06][-2.73607e-07][0][0][0][0]
Neuron=1 weights:
[0][0][0][0][0][0][0][0][0][0][0][0][2.63215e-09][5.6878e-08][5.68807e-08][2.37003e-09][0][0][0][0][0][0][0][0][0][0][0][0][0][0][0][0][2.17033e-12][6.37526e-12][-8.05558e-15][1.98503e-09][1.01491e-10][2.20836e-09][6.16836e-09][1.93129e-08][8.85781e-08][3.58345e-07][5.4336e-07][4.49261e-07][2.04071e-06][2.40101e-06][1.01667e-06][6.889e-07][7.15942e-07][1.23704e-06][7.27921e-07][-1.00506e-09][0][0][0][0][0][0][7.58467e-12][1.68197e-09][3.86897e-09][4.12211e-08][2.04469e-07][1.2715e-07][1.6101e-07][5.9297e-07][1.38283e-06][2.53213e-06][7.74757e-06][1.08228e-05][1.58512e-05][2.59244e-05][3.37293e-05][2.63559e-05][1.71162e-05][9.27704e-06][7.88324e-06][8.2155e-06][4.93588e-06][1.1332e-06][3.23318e-07][4.62861e-08][0][0][0][0][4.1396e-08][1.34635e-08][2.67562e-08][-1.87479e-07][-1.29947e-07][-4.71597e-08][6.89159e-07][-2.52706e-07][1.64852e-06][8.91788e-06][1.83466e-05][2.19139e-05][3.26428e-05][5.71473e-05][6.68359e-05][4.73265e-05][3.14924e-05][1.64172e-05][1.19541e-05][8.28479e-06][3.99298e-06][1.20267e-06][3.49458e-07][-6.70973e-08][-3.72846e-08][0][0][-3.3817e-11][1.46022e-07][-3.33035e-07][-1.53655e-06][-2.45799e-06][-6.33275e-06][-8.03127e-06][-1.24266e-05][-8.77301e-06][1.52328e-05][6.37428e-05][8.67337e-05][0.000142146][0.000464528][0.000578892][0.000375693][0.000131615][-2.46715e-05][-6.67241e-05][-4.77197e-05][-2.67562e-05][-1.83211e-05][-1.20883e-05][-5.67563e-06][-2.04179e-06][-1.30262e-07][-1.44974e-08][0][0][1.10884e-07][-1.24341e-06][-3.30351e-06][-1.24113e-05][-2.09701e-05][-3.42861e-05][-4.77494e-05][-2.51232e-05][5.75801e-05][0.000138611][0.000159135][0.000329004][0.00065826][0.000644192][0.000339826][-2.20739e-05][-0.000122886][-0.000216766][-0.000257243][-0.00018879][-0.000109536][-5.7488e-05][-2.60499e-05][-7.26487e-06][-1.55724e-06][-3.02948e-08][0][-9.06461e-09][-2.42525e-07][-5.41596e-06][-6.456e-06][-2.1566e-05][-3.76812e-05][-6.39717e-05][-6.19018e-05][-3.8288e-05][4.56571e-05][0.000121625][0.000104212][0.000319305][0.000664242][0.00069176][0.000405335][5.09381e-06][-0.00016333][-0.000377387][-0.000500973][-0.000359865][-0.000213521][-0.000107321][-6.24216e-05][-3.26872e-05][-1.0815e-05][-7.27888e-07][7.88657e-12][3.00666e-07][5.72703e-07][-9.24394e-06][-1.87014e-05][-3.07122e-05][-4.91914e-05][-5.42951e-05][-3.1963e-05][-6.47725e-06][3.03724e-05][5.87424e-05][-5.73351e-05][0.000238973][0.000739312][0.000917945][0.000772996][0.000446557][3.83324e-05][-0.000488761][-0.000712291][-0.000489158][-0.00024698][-0.000136691][-8.76966e-05][-5.17553e-05][-1.14869e-05][-9.6494e-07][-9.07953e-10][7.66186e-08][-1.97925e-06][-2.21811e-05][-2.76117e-05][-2.65678e-05][-3.53326e-07][5.65056e-05][0.000144197][0.000203308][0.00017193][2.64489e-05][-0.000155882][0.000269928][0.000976858][0.00127722][0.00117895][0.000908695][0.000308255][-0.000522728][-0.000755705][-0.000486822][-0.000245306][-0.000136628][-0.000103411][-5.30036e-05][-9.93525e-06][-1.04222e-06][9.01606e-08][-2.94678e-07][-1.67818e-06][-2.06572e-05][-1.83978e-05][1.57589e-05][0.000102952][0.000241995][0.000390661][0.000457718][0.000304618][-1.43495e-05][-0.000193246][0.000469544][0.00132896][0.0016097][0.00141797][0.000995372][0.000241243][-0.000531331][-0.000681474][-0.000377868][-0.000172355][-0.000100657][-8.02189e-05][-3.06116e-05][-5.04975e-06][-2.04748e-07][9.94797e-08][7.1857e-07][2.21501e-06][7.06932e-07][1.89319e-05][7.56435e-05][0.000225555][0.000438825][0.000655418][0.00065163][0.000342983][-0.000108326][-0.000149588][0.0006508][0.0015418][0.00172606][0.00136589][0.000720326][-2.26873e-05][-0.000544227][-0.000521623][-0.000216643][-5.89959e-05][-2.23975e-05][-3.47815e-05][-1.73548e-05][-2.67751e-06][-1.99919e-07][5.37021e-08][1.70511e-06][3.97821e-06][7.80219e-06][4.01442e-05][0.000133057][0.000322479][0.0005867][0.0007653][0.000665358][0.000309974][-0.000199632][-0.000179767][0.000585817][0.0014366][0.00147968][0.000940239][0.000300505][-0.000147281][-0.000407764][-0.000323046][-7.24734e-05][5.48135e-05][4.42666e-05][-1.50539e-06][-5.65805e-06][2.63026e-08][4.56363e-07][3.03821e-07][8.55058e-07][3.68074e-06][8.11281e-06][4.708e-05][0.000163413][0.000388881][0.000648471][0.000762654][0.000624849][0.000184472][-0.000262481][-0.00037521][0.000359405][0.00118775][0.00122827][0.000573437][0.00012588][-3.04229e-05][-0.000174741][-0.000138395][4.59633e-05][0.000138896][0.000113438][3.35491e-05][3.71394e-07][-8.07196e-07][6.26328e-07][8.4911e-08][1.53762e-07][1.1257e-06][3.06312e-06][4.60756e-05][0.000194697][0.000439197][0.000660329][0.000766317][0.00060791][0.000121651][-0.000322793][-0.000556351][0.000244944][0.00113202][0.00118342][0.000466679][0.000247862][0.000250807][8.76736e-05][3.92957e-05][0.000150391][0.000219757][0.00019503][6.94327e-05][5.85647e-06][1.04763e-06][-4.47284e-08][7.1615e-10][-1.04055e-07][1.90846e-07][2.13744e-06][5.06478e-05][0.000229839][0.00047103][0.000689985][0.000840143][0.000662748][0.000142592][-0.000363338][-0.000527842][0.000476686][0.00137949][0.00136042][0.000631818][0.000475647][0.000433824][0.000239348][0.000169218][0.00023286][0.000288277][0.000241202][7.89269e-05][7.79535e-06][1.80357e-07][3.63562e-10][5.52941e-09][-7.38168e-08][-8.5412e-07][1.41383e-07][4.84071e-05][0.00024763][0.000483573][0.000722551][0.000860442][0.000720243][0.000268535][-0.00017156][-0.000120528][0.00106476][0.00187491][0.00164981][0.000863853][0.000731628][0.000508858][0.00023491][0.000154053][0.000228276][0.0002767][0.000215595][6.99991e-05][9.7589e-06][9.3918e-08][5.34638e-10][3.02567e-08][-1.10633e-07][-2.49928e-06][-7.12543e-06][3.82601e-05][0.000229704][0.000466822][0.000669091][0.000749595][0.000626887][0.00028823][2.54495e-06][0.000383646][0.00160009][0.00219267][0.0017287][0.00102162][0.000841834][0.000434603][2.16191e-05][-1.71078e-05][0.000103931][0.00019682][0.00016059][5.83743e-05][8.30462e-06][9.84175e-07][4.0893e-10][0][-1.20736e-07][-1.7648e-06][-1.35813e-05][1.75619e-05][0.000185312][0.000370591][0.000494224][0.000444007][0.000210504][-5.89476e-06][3.74751e-06][0.000663505][0.00172761][0.00208076][0.00162988][0.00106353][0.000756798][0.000116487][-0.000251213][-0.000214701][-2.14585e-05][0.00011734][0.000114224][4.40345e-05][6.88696e-06][-1.2604e-07][-2.88362e-09][-4.40339e-08][-2.75939e-08][-5.11711e-06][-1.90465e-05][-1.70783e-06][9.68376e-05][0.000227552][0.000276866][5.42813e-05][-0.000295851][-0.000458002][-0.00011578][0.000627406][0.00152113][0.0018319][0.00155156][0.0011481][0.00057621][-0.000109381][-0.000333879][-0.000248437][-3.48294e-05][8.83987e-05][8.72719e-05][3.22337e-05][5.07137e-06][1.83156e-07][2.9531e-07][3.77852e-08][1.8893e-07][-6.96826e-06][-2.07956e-05][-1.60672e-05][3.73119e-06][6.93513e-05][2.42279e-05][-0.000273413][-0.000622466][-0.000618744][-0.000115033][0.000518429][0.00135155][0.00169759][0.00155674][0.00112117][0.000368771][-0.000193049][-0.000252348][-0.000151207][-1.1633e-05][6.98159e-05][6.23391e-05][1.93691e-05][5.21983e-06][5.75544e-07][1.31143e-07][0][1.34323e-07][-3.02537e-06][-1.59774e-05][-1.494e-05][-6.55523e-05][-9.25838e-05][-0.000228591][-0.000498877][-0.00072082][-0.00063832][-0.000207573][0.00034142][0.00114703][0.00156589][0.0014459][0.000957158][0.000245644][-0.000142396][-9.85008e-05][-3.52174e-05][3.15499e-05][5.2152e-05][3.57888e-05][1.34887e-05][3.91143e-06][2.85019e-07][1.77827e-08][3.35367e-08][2.1528e-07][-4.70995e-06][-1.35691e-05][-1.66816e-05][-8.56991e-05][-0.000224906][-0.000422492][-0.00063828][-0.000778739][-0.000741711][-0.000498428][-3.70084e-05][0.000855153][0.00135571][0.00129947][0.000821648][0.000218999][-3.94019e-05][1.66985e-05][6.44158e-05][6.50401e-05][4.72445e-05][2.06071e-05][1.05455e-05][2.59926e-06][4.92018e-07][-1.55077e-13][3.24887e-08][1.04055e-08][-7.3746e-06][-1.76633e-05][-2.95268e-05][-8.92545e-05][-0.000245273][-0.000498389][-0.000750493][-0.000882732][-0.000895549][-0.000789356][-0.000265802][0.000662989][0.00120406][0.00119546][0.000794271][0.00027041][6.90296e-05][0.000114935][0.000110667][8.04045e-05][4.77429e-05][2.05458e-05][1.13607e-05][3.60539e-06][3.96586e-08][-2.86295e-13][0][0][-2.64391e-06][-1.36535e-05][-3.00997e-05][-7.15808e-05][-0.000204558][-0.000453109][-0.000750581][-0.000924634][-0.000904375][-0.000759483][-0.000170075][0.000721752][0.00122562][0.0011686][0.000791462][0.000303583][9.28393e-05][9.18096e-05][8.69365e-05][5.82377e-05][3.61797e-05][1.20818e-05][5.48025e-06][2.62316e-06][1.56944e-07][0][0][0][-1.22848e-06][-6.06347e-06][-1.23343e-05][-3.80273e-05][-0.000113967][-0.000279587][-0.000510411][-0.000687828][-0.000734655][-0.00056772][-0.000141268][0.000432479][0.000811022][0.000807029][0.00054831][0.000214299][5.31944e-05][4.15507e-05][3.7423e-05][2.85717e-05][1.55788e-05][5.69669e-06][4.19869e-06][2.66624e-06][3.0789e-07][0][0][0][-1.22396e-07][-6.819e-08][-1.6814e-06][-1.4067e-05][-4.86166e-05][-0.000119594][-0.000227335][-0.000293017][-0.000295859][-0.000147444][0.00011682][0.000352257][0.000409599][0.000365986][0.000282546][0.000132286][2.66448e-05][5.40682e-06][2.53144e-06][2.51019e-06][1.16559e-06][4.78336e-07][6.61163e-07][2.51231e-07][2.31992e-07][0][0][0][0][1.71249e-08][-7.93401e-07][-5.44522e-06][-1.81746e-05][-4.49542e-05][-8.33478e-05][-8.97537e-05][-7.89545e-05][-2.37104e-05][8.38897e-05][0.000147465][0.000148958][0.000128654][9.71706e-05][4.18141e-05][-1.2368e-06][-6.97816e-06][-4.02868e-06][-1.55761e-06][-4.53728e-07][1.27073e-07][1.69944e-10][-4.77953e-09][0][0][0][0][0][0][-1.68722e-07][-5.05981e-07][-5.61982e-07][-9.96346e-07][-1.12051e-06][-6.63056e-07][-6.24275e-07][2.75919e-06][1.13788e-05][1.66932e-05][1.45303e-05][1.58627e-05][1.18737e-05][3.06326e-06][-2.47483e-06][-2.16843e-06][-1.28481e-06][-3.49012e-07][-6.5026e-07][-1.9785e-07][0][0][0][0]
Neuron=2 weights:
[0][0][0][0][0][0][0][0][0][0][0][0][-9.88346e-10][-2.8218e-09][-7.31855e-10][-3.0494e-11][0][0][0][0][0][0][0][0][0][0][0][0][0][0][0][0][-2.88945e-08][-9.40406e-08][-1.34129e-06][-3.53484e-06][-5.6748e-06][-6.76494e-06][-1.08525e-05][-1.34352e-05][-1.21993e-05][-8.77766e-06][-7.53113e-06][-4.61818e-06][-3.42754e-06][-1.71088e-06][-2.46756e-06][-3.27804e-06][-1.91601e-06][-1.73077e-07][-1.85268e-07][-4.9568e-08][0][0][0][0][0][0][-5.2626e-12][-1.22805e-10][-3.39255e-07][-1.43069e-07][-2.13378e-06][-9.39638e-06][-1.95556e-05][-3.31311e-05][-5.45385e-05][-6.60524e-05][-6.4035e-05][-4.86422e-05][-4.458e-05][-3.64235e-05][-4.21983e-05][-5.16524e-05][-7.94251e-05][-6.9607e-05][-1.60775e-05][-3.43239e-06][-1.94886e-06][-1.45587e-07][-5.89926e-10][-1.5586e-11][0][0][0][0][1.26927e-08][2.06018e-09][-6.13059e-08][-2.16766e-07][-3.46368e-06][-1.4762e-05][-3.4262e-05][-6.93454e-05][-0.000112447][-0.000131442][-0.000114141][-9.406e-05][-9.6456e-05][-9.97095e-05][-0.000142043][-0.000189406][-0.000185894][-0.000102603][-1.57765e-05][-1.92736e-06][-8.18099e-07][-4.23459e-07][-5.03209e-07][-2.81697e-07][-2.9987e-10][0][0][1.02411e-13][4.32633e-08][2.00316e-08][-5.20918e-07][-1.62997e-06][-8.599e-06][-2.91645e-05][-6.90204e-05][-0.000123536][-0.000178299][-0.000185453][-0.000159475][-0.000171596][-0.000322942][-0.00055897][-0.000705675][-0.000607468][-0.000345663][-0.000118053][-1.2631e-05][-1.80991e-06][-4.29941e-06][-1.0601e-05][-8.72116e-06][-1.59202e-06][4.27405e-09][-1.08117e-09][0][0][-1.65229e-07][-5.90132e-07][-3.06778e-07][-5.40207e-06][-2.5225e-05][-6.65934e-05][-0.000126316][-0.000192969][-0.000235867][-0.000216745][-0.000207869][-0.000289448][-0.000603541][-0.00100218][-0.0011523][-0.000932087][-0.000434508][-0.000109794][-2.01743e-05][-1.29295e-05][-2.49133e-05][-3.16328e-05][-1.81268e-05][-4.57535e-06][-6.57106e-07][-1.3813e-09][0][1.05856e-16][1.14548e-07][1.40411e-07][-1.60497e-06][-1.00903e-05][-3.90265e-05][-0.000106014][-0.000200106][-0.000254958][-0.000252154][-0.000203261][-0.000199271][-0.000350088][-0.000761638][-0.00121023][-0.00130896][-0.000961958][-0.00041381][-9.83506e-05][-2.6758e-05][-3.30748e-05][-4.50419e-05][-3.97692e-05][-1.94695e-05][-5.47303e-06][-7.63446e-07][3.57317e-07][-1.66459e-18][4.39812e-11][1.2606e-07][3.68961e-07][-2.45369e-06][-1.40175e-05][-5.76059e-05][-0.000149052][-0.000251981][-0.0002905][-0.000226187][-0.000150759][-0.000178319][-0.00040281][-0.000856061][-0.00127869][-0.00133538][-0.000891993][-0.000339374][-7.79038e-05][-4.87669e-05][-5.8784e-05][-5.35054e-05][-3.69943e-05][-1.37775e-05][-2.04545e-06][-7.43579e-07][1.66992e-07][-1.22757e-13][-3.48514e-09][1.43548e-07][6.23658e-07][-2.68235e-06][-1.79888e-05][-7.38264e-05][-0.000181762][-0.000302043][-0.00031302][-0.000188073][-0.000118658][-0.000192992][-0.000457857][-0.000918923][-0.00132859][-0.00128814][-0.000775432][-0.00024557][-7.50925e-05][-7.44031e-05][-7.60425e-05][-5.81393e-05][-3.51089e-05][-1.36998e-05][-2.80368e-06][-1.99306e-06][-2.02078e-07][-9.61075e-13][2.37608e-12][3.74516e-08][8.36429e-08][-3.33348e-06][-1.91793e-05][-8.64997e-05][-0.000206153][-0.000346229][-0.00032985][-0.000165614][-0.000130756][-0.000237917][-0.00050735][-0.00098355][-0.00135769][-0.0012345][-0.000639906][-0.000183092][-0.000123255][-0.000117809][-9.26851e-05][-6.04826e-05][-3.7903e-05][-1.58924e-05][-5.09712e-06][-1.07198e-06][-1.05676e-07][-1.17216e-12][-5.86925e-11][4.77649e-09][3.82124e-08][-2.62656e-06][-1.88882e-05][-9.45592e-05][-0.000232602][-0.000387685][-0.000333784][-0.000171419][-0.000174001][-0.000281498][-0.000558581][-0.00107867][-0.00138382][-0.00117129][-0.000500196][-0.000164662][-0.000182823][-0.000168373][-0.000108809][-6.59342e-05][-3.65421e-05][-1.46475e-05][-2.72751e-06][-5.22457e-07][-1.35055e-07][-1.81778e-13][1.57282e-08][4.35864e-08][2.88218e-07][-3.26722e-06][-2.50332e-05][-0.000102744][-0.000259912][-0.000418701][-0.000348591][-0.000204668][-0.000201937][-0.000291625][-0.000644326][-0.00119821][-0.00140289][-0.00105503][-0.000378953][-0.000238701][-0.00027516][-0.000224047][-0.00014048][-8.67339e-05][-5.28403e-05][-1.87162e-05][-4.05459e-06][-9.38974e-07][-1.69136e-07][-2.59158e-14][-4.67741e-10][3.88535e-08][3.06002e-07][-3.85116e-06][-2.57096e-05][-0.000109447][-0.000274041][-0.000433553][-0.000382567][-0.000239869][-0.000227595][-0.000306382][-0.000786004][-0.00133105][-0.00145627][-0.000958753][-0.000427032][-0.000390075][-0.000375522][-0.0003089][-0.000205664][-0.000122692][-8.15605e-05][-3.80112e-05][-5.57398e-06][-2.1318e-07][-2.34876e-07][-5.45681e-09][-2.17794e-10][3.90218e-08][2.79117e-07][-3.33189e-06][-2.69233e-05][-0.000112365][-0.000278121][-0.000444623][-0.00042617][-0.000298098][-0.000270752][-0.000383636][-0.0010125][-0.00153339][-0.00157261][-0.000899444][-0.000562015][-0.000482034][-0.000402515][-0.000357689][-0.000271942][-0.000170031][-0.000107073][-4.726e-05][-9.57061e-06][-2.02388e-06][4.75084e-08][9.13774e-15][-1.26203e-10][2.30725e-09][6.12591e-08][-4.58523e-06][-3.1671e-05][-0.000115828][-0.000282624][-0.000447703][-0.000476233][-0.000395141][-0.000389123][-0.000591971][-0.00135244][-0.00176439][-0.00160881][-0.000817902][-0.000609522][-0.000452841][-0.000353296][-0.00036298][-0.000316454][-0.000206253][-0.000123194][-5.31892e-05][-1.4975e-05][-1.22777e-06][-1.92281e-08][-1.96546e-11][-2.76464e-13][-1.05253e-08][-1.23487e-07][-6.18433e-06][-4.27419e-05][-0.000112432][-0.000252919][-0.000436232][-0.000526128][-0.000494679][-0.000535517][-0.000901724][-0.00169938][-0.00194895][-0.00147238][-0.000713121][-0.00057188][-0.000417838][-0.000332012][-0.000340695][-0.000306526][-0.000205171][-0.000126698][-6.32289e-05][-2.18523e-05][-1.27785e-06][-4.71607e-07][-1.12329e-10][4.25505e-10][-8.53738e-09][-1.28274e-07][-5.7582e-06][-4.58414e-05][-9.88326e-05][-0.000207533][-0.000382012][-0.000519226][-0.00052088][-0.000609179][-0.00118787][-0.00186225][-0.00193446][-0.00117767][-0.00060134][-0.000515373][-0.0004087][-0.000352418][-0.000324466][-0.000248278][-0.000163793][-0.000114728][-6.05199e-05][-2.09755e-05][-1.23387e-06][-1.63495e-08][0][6.59702e-09][-4.68516e-09][-6.01582e-07][-4.96393e-06][-3.9103e-05][-8.47288e-05][-0.000161124][-0.000317803][-0.00048676][-0.000530184][-0.000714523][-0.00143893][-0.00187244][-0.00171379][-0.000860918][-0.000497093][-0.000484569][-0.00041689][-0.000340395][-0.000267614][-0.000181449][-0.000129115][-8.89423e-05][-4.09302e-05][-1.76444e-05][-1.70395e-06][-1.60564e-08][8.54084e-08][-4.94304e-08][-7.04937e-09][-1.43801e-06][-7.08832e-06][-3.46158e-05][-6.70539e-05][-0.000125317][-0.000247747][-0.000432335][-0.000530514][-0.000882881][-0.00159869][-0.00177917][-0.00139299][-0.000672784][-0.000490718][-0.00051089][-0.000416833][-0.000304553][-0.000222922][-0.000168342][-0.000108857][-6.04175e-05][-2.63124e-05][-1.03626e-05][-1.82133e-06][3.0425e-08][-6.26887e-08][-3.42823e-07][-1.17064e-07][-2.24278e-06][-1.02657e-05][-2.86106e-05][-4.93629e-05][-8.30887e-05][-0.000178798][-0.000335628][-0.000556561][-0.00106154][-0.00173187][-0.00170286][-0.00119258][-0.000671658][-0.000543366][-0.000498277][-0.000384622][-0.000278761][-0.000222342][-0.000156699][-8.21681e-05][-3.67345e-05][-1.54325e-05][-4.97609e-06][-9.53084e-07][2.52642e-08][0][-9.35549e-10][-3.29632e-07][-2.34351e-06][-7.85365e-06][-1.70954e-05][-3.35367e-05][-5.1294e-05][-0.000111565][-0.000249476][-0.000579668][-0.00116412][-0.00174517][-0.00160205][-0.00107161][-0.000667403][-0.000492935][-0.000414168][-0.000326161][-0.000265978][-0.000206441][-0.000120101][-5.23111e-05][-2.22681e-05][-8.49479e-06][-1.65119e-06][-2.65975e-07][-3.74251e-09][-4.35193e-09][-1.23054e-08][-1.68359e-07][-1.31893e-06][-4.26737e-06][-1.33993e-05][-1.94892e-05][-2.97387e-05][-6.25375e-05][-0.000190942][-0.000544811][-0.00111882][-0.00156734][-0.00134711][-0.000895468][-0.000550564][-0.000365985][-0.000285353][-0.000229472][-0.000194287][-0.000147762][-8.43403e-05][-4.1143e-05][-1.76701e-05][-5.63127e-06][-1.59058e-06][-2.47976e-08][-9.61451e-18][-4.21593e-09][-1.3597e-09][2.47753e-08][-6.02894e-07][-7.47124e-07][-4.27452e-06][-1.16886e-05][-2.28915e-05][-4.83902e-05][-0.000178997][-0.000479792][-0.000919061][-0.00119317][-0.000960898][-0.000666145][-0.000396017][-0.000210034][-0.00014497][-0.000132462][-0.000116243][-9.65459e-05][-6.31611e-05][-2.94732e-05][-1.19476e-05][-4.80879e-06][-1.96961e-06][4.53545e-08][-1.77499e-17][0][0][-9.92456e-09][5.78364e-08][1.40309e-07][-4.14517e-07][-3.96191e-06][-1.06459e-05][-3.7016e-05][-0.000158089][-0.00040306][-0.000684538][-0.000830374][-0.000631857][-0.000436829][-0.000242421][-0.000120441][-7.13685e-05][-8.2121e-05][-8.50773e-05][-6.89651e-05][-3.68012e-05][-1.5172e-05][-5.97026e-06][-3.28907e-06][-7.82367e-07][3.59137e-08][0][0][0][1.27303e-07][4.58358e-07][6.19234e-07][5.85258e-07][2.72713e-07][1.15006e-06][-7.07375e-06][-4.87854e-05][-0.000107507][-0.00016713][-0.000177749][-0.000167941][-0.000167518][-0.000101017][-5.58439e-05][-2.8776e-05][-4.30419e-05][-5.92463e-05][-4.08859e-05][-2.19013e-05][-7.3684e-06][-2.40372e-06][-7.23145e-07][-3.68924e-07][-9.91878e-10][0][0][0][1.85238e-13][-2.1024e-09][-9.65918e-10][2.13754e-08][3.3997e-07][2.73114e-06][2.80465e-06][-5.08823e-06][-8.45184e-06][-7.00693e-06][-2.9288e-06][-4.89887e-06][-9.90957e-06][-7.64473e-06][-3.62175e-06][-2.33186e-06][-3.38147e-06][-9.40195e-06][-6.44901e-06][-1.97671e-06][-7.51697e-07][-1.80834e-07][-1.57525e-10][-2.04783e-09][-7.69248e-12][0][0][0][0][-2.08821e-12][1.83357e-10][8.86738e-08][4.29408e-07][1.50313e-06][7.1699e-07][-1.00073e-06][-9.45305e-07][-7.05388e-07][-6.93518e-07][-1.21705e-06][-8.95839e-07][-9.21146e-08][-2.88889e-07][-7.11172e-07][6.15277e-08][9.51928e-07][8.56569e-07][1.08869e-07][-5.5015e-08][3.19453e-10][-3.74666e-12][-6.3559e-15][0][0][0][0][0][0][-7.82975e-11][2.25354e-08][4.91203e-08][-3.47322e-09][-8.82205e-08][-2.92751e-08][-7.99687e-09][-1.27936e-09][-6.06622e-09][-5.92439e-08][8.36604e-08][1.21012e-07][-2.20097e-10][4.61259e-10][1.69502e-09][2.51036e-08][2.40889e-07][1.59553e-07][1.1396e-07][4.36942e-10][0][0][0][0]
Neuron=3 weights:
[0][0][0][0][0][0][0][0][0][0][0][0][1.32874e-07][1.34945e-06][1.17791e-06][4.90794e-08][0][0][0][0][0][0][0][0][0][0][0][0][0][0][0][0][-2.56898e-08][-7.073e-08][-3.38826e-07][-2.10794e-06][-3.23409e-06][-2.6867e-06][-3.18047e-06][-4.3554e-06][-6.02007e-06][-8.3773e-06][-7.28413e-06][-7.41038e-06][-8.20482e-06][-9.08763e-06][-3.40488e-06][-2.50742e-06][-1.02737e-06][1.15593e-07][-4.33762e-07][-6.70707e-07][0][0][0][0][0][0][-9.89547e-08][-3.12403e-08][-1.98041e-07][-2.62133e-07][-1.48848e-06][-4.22493e-06][-1.12524e-05][-2.34503e-05][-3.70945e-05][-5.20853e-05][-7.71528e-05][-8.74509e-05][-0.000112645][-0.000157075][-0.000164566][-0.00011411][-5.53412e-05][-1.74322e-05][-5.21985e-06][-8.0345e-06][-4.69853e-06][-1.56471e-06][-2.72499e-07][1.09309e-07][0][0][0][0][-1.71811e-07][-1.10616e-07][-1.80719e-08][4.31459e-07][-2.11692e-08][-1.20974e-06][-6.72203e-06][-1.43072e-05][-1.28808e-05][3.27919e-06][1.94966e-05][2.68466e-05][-3.69859e-05][-9.45843e-05][-5.4163e-05][1.14265e-05][5.89538e-05][5.07819e-05][2.12738e-05][-1.45627e-05][-2.01806e-05][-6.90353e-06][-2.83493e-06][9.65012e-08][1.58717e-07][0][0][5.0836e-08][2.17105e-07][1.03803e-07][-7.48599e-09][5.77155e-06][1.70227e-05][4.3894e-05][8.13275e-05][0.000148942][0.000301579][0.000500998][0.000768446][0.00105783][0.001097][0.00105345][0.000989884][0.000875006][0.000840301][0.000795063][0.000562445][0.000262321][5.82828e-05][4.6626e-06][6.82364e-06][6.9427e-06][4.87795e-06][7.99725e-07][0][0][3.00319e-08][2.961e-06][1.50031e-05][4.65625e-05][9.45611e-05][0.000186045][0.000311667][0.000506595][0.000823177][0.00130726][0.0018362][0.00229235][0.00253316][0.00270908][0.0026957][0.00239428][0.0019765][0.00173268][0.00129186][0.00075675][0.000287399][6.2832e-05][1.82697e-05][1.44393e-05][6.57913e-06][8.36692e-08][0][3.31802e-09][1.00412e-06][1.38035e-05][3.97122e-05][9.57512e-05][0.000191969][0.000335433][0.000531462][0.000781914][0.00120557][0.00179627][0.00238361][0.00292164][0.00330144][0.00351473][0.00347799][0.00326849][0.00285042][0.0024804][0.00194511][0.00122015][0.000557814][0.000150445][3.74169e-05][3.73566e-05][1.35283e-05][2.64895e-06][-2.77438e-08][-9.56312e-07][1.10083e-06][1.33812e-05][4.8692e-05][0.000110807][0.000217245][0.000329817][0.000497026][0.000775021][0.00128451][0.00184836][0.00252394][0.00301923][0.00310449][0.00298887][0.00284195][0.0027034][0.00271939][0.00274404][0.00237362][0.00164108][0.000850089][0.000335611][0.000141983][6.99652e-05][1.70588e-05][1.8857e-06][-1.01741e-07][-3.32165e-06][-4.55074e-06][-5.67344e-06][1.34826e-05][5.74052e-05][0.000118441][0.000157363][0.00028973][0.000551458][0.0010666][0.00171943][0.0024095][0.00261906][0.00229191][0.00187545][0.00173581][0.0017108][0.00208435][0.00258646][0.00247705][0.00190529][0.00113314][0.00052374][0.000230106][9.40081e-05][2.26119e-05][1.43254e-06][-3.99167e-07][-3.11058e-06][-1.24526e-05][-2.22985e-05][-2.98331e-05][-2.61708e-05][-3.14129e-05][-5.11339e-05][1.28367e-05][0.000290383][0.000904432][0.00167766][0.00225312][0.00211612][0.00142028][0.0010546][0.00102656][0.00117186][0.00163898][0.00219396][0.00231159][0.00185838][0.00119789][0.000604332][0.000254407][7.69238e-05][2.1468e-05][3.37062e-06][-4.4005e-07][-1.47997e-06][-7.97818e-06][-2.69815e-05][-4.04719e-05][-5.79283e-05][-0.000103694][-0.00015637][-0.000185177][0.000144162][0.000946534][0.00175019][0.00215977][0.00184152][0.0011399][0.000918903][0.000917771][0.00114465][0.0013728][0.00167863][0.00192718][0.001655][0.00110103][0.000580898][0.00022075][5.59816e-05][1.46704e-05][2.97204e-06][-2.16378e-08][-8.65027e-08][-1.01235e-06][-1.52085e-05][-3.1341e-05][-4.7468e-05][-9.7147e-05][-0.000192253][-0.000198962][0.000306357][0.00111398][0.00186911][0.00217555][0.00190563][0.00137038][0.00124873][0.00133412][0.00142404][0.00110692][0.00122434][0.00163753][0.00149237][0.000936716][0.000503271][0.000189683][3.17057e-05][7.43739e-06][-3.05487e-07][-8.07965e-08][-1.09746e-07][-4.95863e-08][-1.04074e-05][-2.0851e-05][-3.9892e-05][-0.000104707][-0.000284785][-0.000264476][0.000405271][0.00138764][0.00204873][0.00235546][0.0021588][0.00185296][0.00176108][0.00174461][0.00124876][0.000625271][0.000863849][0.00136265][0.00117247][0.000707573][0.000369538][0.000135926][9.74393e-06][7.21973e-06][-2.4968e-07][-4.04097e-08][-1.82568e-07][1.14932e-07][-3.15532e-06][-1.9178e-05][-7.21715e-05][-0.000230229][-0.000485866][-0.000476652][0.000318093][0.00138479][0.00220097][0.00266625][0.00251945][0.00217511][0.00194234][0.00157515][0.000679905][0.000133788][0.00052011][0.00103209][0.000828359][0.000446437][0.000179673][6.0336e-05][-5.44439e-06][2.15871e-06][-6.4826e-08][-2.16656e-09][-1.30792e-07][-3.26973e-07][-8.09616e-06][-3.00677e-05][-0.00011212][-0.000359745][-0.000648321][-0.000803788][-0.000158424][0.000903108][0.00196247][0.00259562][0.00233889][0.00182929][0.00142518][0.000951557][0.000233008][-1.9191e-05][0.000375564][0.000762024][0.000607825][0.000259697][3.85537e-05][8.81912e-06][-1.34372e-05][4.63661e-06][-5.11833e-09][-7.09906e-10][-5.89684e-07][-4.52112e-07][-8.57957e-06][-1.82212e-05][-9.71206e-05][-0.000334829][-0.000612736][-0.000830855][-0.000506498][0.000290665][0.00132916][0.00180999][0.00141989][0.00095718][0.000667349][0.000363111][3.08451e-05][0.00020201][0.000605573][0.000801993][0.000557435][0.000226916][1.35405e-05][-2.00646e-05][-1.79886e-05][5.1909e-06][-3.064e-07][-2.86794e-12][-2.59665e-07][1.02815e-06][3.88268e-06][2.69936e-05][4.76211e-05][-5.98011e-05][-0.000163919][-0.000258685][-8.96249e-05][0.000433839][0.00119947][0.00110519][0.000630245][0.000274205][6.9253e-05][-0.000159667][-2.00718e-05][0.000652223][0.00118171][0.00108207][0.000672235][0.00027688][3.6785e-05][-1.99334e-05][-9.07872e-06][5.75144e-06][3.58571e-08][0][1.0413e-07][2.87962e-06][2.85071e-05][0.000117038][0.000282547][0.000405854][0.000533601][0.000676964][0.00093787][0.00138161][0.00143807][0.000846211][0.000367456][0.000171159][-1.16112e-05][-0.000299208][9.08784e-05][0.00113134][0.00164165][0.00142751][0.000825603][0.000348314][8.23773e-05][1.65072e-06][1.46583e-06][4.52761e-06][7.56587e-07][4.31794e-07][-1.15964e-07][5.6771e-06][5.27512e-05][0.000212439][0.000510301][0.000857898][0.001229][0.00166874][0.00207552][0.00230364][0.00163908][0.000854771][0.000466931][0.000439536][0.000177888][-0.000198254][0.000423851][0.00149332][0.0019057][0.00156661][0.000895188][0.000412549][0.00011494][1.35103e-05][1.91046e-06][1.20916e-06][-4.2278e-08][-7.06355e-08][-9.89541e-08][4.71284e-06][7.04662e-05][0.000289561][0.000667815][0.0011846][0.0018645][0.0026534][0.00318876][0.00282512][0.00164796][0.000860828][0.000657076][0.000774896][0.000375393][0.000213172][0.000853602][0.00165472][0.00182837][0.00142573][0.000818028][0.000390584][0.000121455][2.18752e-05][3.84473e-06][1.12017e-06][-1.10077e-07][0][7.57194e-07][6.86856e-06][7.09497e-05][0.000315846][0.000725569][0.00134949][0.00231177][0.00331428][0.00392575][0.00337049][0.00217309][0.00142445][0.00127588][0.00134865][0.000945514][0.000768241][0.00122559][0.00164761][0.00154398][0.00116844][0.000679895][0.000327824][0.000118495][4.12954e-05][1.58744e-05][4.03166e-06][-1.20461e-07][-3.94055e-08][5.57871e-07][1.38595e-05][6.79876e-05][0.000269232][0.000667935][0.00128713][0.00233924][0.00357929][0.00425285][0.00401775][0.00334608][0.0028394][0.00249538][0.00219364][0.00163524][0.00137958][0.00146992][0.00142783][0.00111288][0.000781098][0.000484274][0.000233123][8.84089e-05][3.55897e-05][1.72178e-05][4.72053e-06][2.44728e-09][-3.81741e-08][1.43948e-08][9.9058e-06][5.62509e-05][0.000180879][0.000501972][0.00107567][0.00201165][0.00325637][0.00399399][0.00412007][0.00390204][0.00353507][0.00310482][0.00263662][0.00192853][0.00145215][0.00116472][0.000839516][0.000509127][0.000345744][0.000223335][0.000110486][3.53865e-05][9.28054e-06][4.17274e-06][5.46828e-07][4.51805e-09][0][0][3.65186e-06][2.95992e-05][9.33977e-05][0.00024514][0.00065677][0.00132388][0.00226975][0.00295414][0.00312105][0.00293922][0.00247112][0.00207134][0.00156816][0.000995638][0.000602967][0.000372745][0.000196361][5.46778e-05][2.20098e-05][3.73786e-05][9.39905e-06][-1.76383e-06][-3.33675e-06][-7.18261e-07][-1.34021e-07][0][0][0][1.63969e-06][1.21201e-05][3.22667e-05][8.81697e-05][0.000255813][0.000554047][0.000973088][0.00133041][0.00143404][0.00114609][0.000644931][0.000221786][-4.06719e-05][-0.000108264][-7.90719e-05][-4.68573e-05][-5.64878e-05][-6.14792e-05][-2.6719e-05][-3.7731e-06][-4.04077e-06][8.48861e-07][-1.89762e-06][-4.3854e-07][-1.03853e-09][0][0][0][1.30493e-07][-2.53164e-07][3.80258e-06][3.1911e-05][8.85159e-05][0.000191599][0.000336597][0.000426394][0.000423067][0.000255915][-1.45699e-05][-0.000245778][-0.000286168][-0.000208474][-0.000108321][5.46638e-07][3.3378e-05][8.4971e-06][3.94463e-06][5.31814e-06][4.20389e-08][1.01788e-06][1.50913e-07][-8.61592e-10][-3.28371e-10][0][0][0][0][2.1315e-08][5.87432e-06][1.52493e-05][3.24579e-05][5.69298e-05][9.84958e-05][9.75275e-05][5.46972e-05][-1.30202e-05][-0.000114947][-0.000149258][-0.000153612][-0.000133229][-6.9285e-05][4.49799e-06][2.57769e-05][1.48518e-05][8.72087e-06][4.21101e-06][2.11575e-06][1.6161e-07][6.64228e-08][1.73005e-09][0][0][0][0][0][0][4.46204e-07][1.15135e-06][1.98102e-06][3.92053e-06][3.98002e-06][-1.28426e-06][-5.30031e-06][-8.19719e-06][-2.15676e-05][-2.0541e-05][-2.39287e-05][-2.61635e-05][-1.56615e-05][-2.95132e-06][3.75618e-06][1.17677e-06][1.0446e-06][9.90091e-07][5.6243e-07][1.21879e-07][0][0][0][0]
Neuron=4 weights:
[0][0][0][0][0][0][0][0][0][0][0][0][1.15331e-08][2.69861e-08][1.92797e-09][8.03321e-11][0][0][0][0][0][0][0][0][0][0][0][0][0][0][0][0][2.16317e-09][1.24981e-08][3.83972e-07][1.03117e-06][1.62154e-06][2.76247e-06][5.48401e-06][9.81187e-06][9.7029e-06][5.61582e-06][6.00325e-06][8.29438e-06][1.09762e-05][8.2458e-06][5.50525e-06][2.88941e-06][1.70518e-06][2.83042e-07][2.13189e-08][1.693e-11][0][0][0][0][0][0][1.46569e-11][5.66888e-08][1.34695e-07][2.18237e-07][7.61698e-07][2.72224e-06][5.76655e-06][1.00898e-05][2.33665e-05][3.72318e-05][5.49468e-05][6.48285e-05][6.67254e-05][7.84754e-05][0.000107622][0.000134917][0.000128144][8.49502e-05][4.8655e-05][2.77174e-05][1.17532e-05][2.02494e-06][6.50568e-07][1.26873e-07][0][0][0][0][6.56886e-09][5.12152e-07][7.88937e-07][5.24257e-07][2.83947e-06][1.07445e-05][2.58656e-05][4.53655e-05][7.30743e-05][0.000112685][0.000154167][0.000188837][0.000230819][0.000288195][0.000356818][0.000398123][0.000354702][0.000243114][0.000138144][7.34573e-05][2.87698e-05][7.30037e-06][2.57574e-06][1.00441e-07][1.45666e-10][0][0][4.02874e-10][1.32682e-07][1.48851e-07][1.3444e-06][4.79788e-06][9.59753e-06][2.27732e-05][5.29033e-05][9.78452e-05][0.000153033][0.000230656][0.000360296][0.000545471][0.000771401][0.000996458][0.0011775][0.00125121][0.00112401][0.00086162][0.000536527][0.000274451][9.25156e-05][1.60249e-05][3.33555e-06][-1.10076e-07][-2.02153e-07][-5.4477e-09][0][0][8.30608e-07][1.17584e-06][4.26338e-06][1.27428e-05][2.44993e-05][4.42848e-05][9.62467e-05][0.000174738][0.000265638][0.000386666][0.000609813][0.000931097][0.00127864][0.00161062][0.00178301][0.0018406][0.00167001][0.00126164][0.000792696][0.000367361][8.57257e-05][-1.73037e-06][-8.66238e-06][-3.10812e-06][1.55203e-07][-1.07029e-07][0][-5.98143e-10][8.96188e-08][7.72064e-07][2.53431e-06][1.13536e-05][2.6691e-05][5.36311e-05][0.000113134][0.000232987][0.000397521][0.000603412][0.000887172][0.00128992][0.00176753][0.00214941][0.00228865][0.00229534][0.00201888][0.00138606][0.000762495][0.000270847][1.46069e-05][-4.34606e-05][-3.4078e-05][-1.46774e-05][-2.97335e-06][-7.64907e-07][-1.18728e-15][-2.41342e-07][-1.81092e-06][-3.26867e-06][-5.50925e-06][-6.79144e-06][2.3977e-06][3.14702e-05][0.000113487][0.000293063][0.000552727][0.000826589][0.00109846][0.00150371][0.00196676][0.00230761][0.00247082][0.00250025][0.00211786][0.00137161][0.000663587][0.000174851][-8.95449e-06][-5.1415e-05][-3.65708e-05][-1.62769e-05][-4.26069e-06][-7.21838e-07][7.86016e-11][-6.57911e-07][-2.79683e-06][-8.22031e-06][-1.4644e-05][-2.34399e-05][-1.85723e-05][2.2191e-05][0.000174555][0.000467754][0.000766264][0.000933663][0.00108045][0.00138227][0.00178444][0.00210311][0.00231705][0.00241676][0.00205866][0.00128206][0.000579722][0.000191496][3.33728e-05][-1.84308e-05][-7.34764e-06][1.26164e-06][1.38686e-06][-3.0474e-07][-1.02583e-08][-4.14576e-07][-4.07223e-06][-1.18848e-05][-1.43786e-05][-2.18054e-05][1.06183e-05][0.000109769][0.000359251][0.000748081][0.000976047][0.00100078][0.00103241][0.00122316][0.00164806][0.0021002][0.00224673][0.00229006][0.00188478][0.00114722][0.000582946][0.00027806][8.50115e-05][1.64561e-05][1.31995e-05][1.05463e-05][2.37992e-06][1.56505e-07][-2.47093e-08][-5.81484e-07][-4.22652e-06][-9.46572e-06][-1.02088e-06][2.03823e-05][8.26698e-05][0.000262021][0.000628719][0.000976515][0.00108449][0.00101664][0.000941696][0.00117941][0.001834][0.00237587][0.00231352][0.00217785][0.00162387][0.00100147][0.000611205][0.000345108][0.000142956][4.72886e-05][2.13303e-05][9.94484e-06][1.60826e-06][-1.79721e-08][-7.4235e-09][-1.25637e-06][-5.80559e-06][-5.03114e-06][1.75577e-05][6.57717e-05][0.000161604][0.000431694][0.000850279][0.00110627][0.00112662][0.000988773][0.000858121][0.00124851][0.00220409][0.00261755][0.00232454][0.00198187][0.00141731][0.000965352][0.000650631][0.000396673][0.000199233][8.00881e-05][2.39487e-05][6.18771e-06][1.16704e-06][7.67271e-09][-1.46505e-11][-5.0553e-07][-4.48217e-06][1.42229e-06][3.49694e-05][9.42107e-05][0.000233446][0.000561208][0.000983151][0.00120838][0.00120851][0.000975465][0.000805919][0.0015499][0.00266279][0.00278334][0.00231297][0.00181831][0.00135827][0.000997578][0.000671213][0.000457489][0.000262963][0.000118469][3.81683e-05][8.23031e-06][9.48374e-07][8.08194e-08][5.93013e-09][-6.74475e-08][-1.39884e-06][3.71336e-06][4.85253e-05][0.000119819][0.000287415][0.000647226][0.00108715][0.00137052][0.00134965][0.00108127][0.00105035][0.00230317][0.00316889][0.00298589][0.00221062][0.00172944][0.00142187][0.00100147][0.000680876][0.000501733][0.00030858][0.000153724][5.57644e-05][9.52192e-06][7.09809e-07][4.48711e-08][-3.99e-09][-3.0309e-08][-3.17967e-07][5.35019e-06][4.80769e-05][0.000134497][0.000335901][0.000703748][0.00117404][0.00154465][0.00155916][0.00136497][0.00180348][0.00324249][0.00366453][0.0030414][0.00201541][0.00171119][0.00140157][0.00099796][0.000713451][0.000528047][0.000338321][0.000178901][7.50497e-05][1.24668e-05][1.29709e-06][6.89102e-10][-1.30726e-09][1.48925e-10][3.21681e-07][6.23005e-06][4.51968e-05][0.000141232][0.000354946][0.000739964][0.00122002][0.00157146][0.00164254][0.00170959][0.00269109][0.00384484][0.00386679][0.00274215][0.0018122][0.00161407][0.00126951][0.000928362][0.000706409][0.000532399][0.000344625][0.00018439][8.23817e-05][2.3715e-05][2.25255e-06][9.5543e-08][-4.59367e-12][1.63568e-08][6.82545e-07][4.86202e-06][3.45561e-05][0.000132731][0.00034777][0.000726361][0.00117097][0.00145644][0.0015874][0.00206808][0.00318048][0.00385959][0.00354903][0.00220356][0.00158845][0.00140521][0.00113394][0.000868088][0.000694422][0.000513785][0.000328692][0.000171273][8.20328e-05][2.81576e-05][2.9061e-06][9.27693e-08][0][2.94815e-07][1.20695e-06][5.40874e-06][2.40159e-05][0.000100846][0.000320835][0.000668896][0.00103122][0.00127147][0.00159997][0.00234317][0.00319082][0.00349669][0.00282385][0.00166411][0.00138609][0.0013347][0.00113303][0.000878012][0.000664074][0.000468685][0.000278565][0.000150386][7.15707e-05][2.83712e-05][3.45482e-06][4.06281e-08][1.44482e-09][9.17182e-08][6.23822e-07][7.5687e-06][2.04749e-05][7.98437e-05][0.000274018][0.000599674][0.000924032][0.00126089][0.00180294][0.00256092][0.00309537][0.00305288][0.00225275][0.00142428][0.00137466][0.00143121][0.00121053][0.00088315][0.000608016][0.000397239][0.000227176][0.000118633][5.2835e-05][2.4016e-05][2.47624e-06][7.27035e-08][5.40284e-08][1.15208e-07][1.3381e-07][1.06769e-05][2.00202e-05][6.28813e-05][0.00021094][0.000506788][0.000936758][0.00147101][0.00215681][0.00280115][0.00307947][0.0028012][0.00207724][0.00145483][0.00142737][0.00143682][0.00116945][0.000796833][0.000503438][0.000312834][0.000169309][7.68532e-05][3.1595e-05][1.30023e-05][1.65773e-06][9.35724e-08][0][-4.06151e-07][-2.25772e-07][1.10099e-05][2.38228e-05][5.20148e-05][0.00014371][0.000424428][0.000956692][0.0016544][0.00239755][0.00289916][0.00300814][0.00268616][0.00204506][0.00146959][0.00131353][0.0012241][0.000946913][0.000608797][0.000373497][0.000218445][0.000108326][4.43227e-05][2.18233e-05][8.08231e-06][1.71243e-06][1.50305e-07][4.51735e-08][-2.22048e-07][1.14485e-06][9.53163e-06][2.2239e-05][5.10337e-05][0.000121897][0.00036782][0.000912994][0.00159979][0.00225913][0.00262854][0.00268067][0.00239638][0.00180873][0.00121765][0.00100892][0.000906598][0.000670341][0.000404793][0.00023582][0.000131979][6.45583e-05][3.39979e-05][1.9673e-05][5.34901e-06][1.39388e-06][6.16916e-11][4.37618e-08][6.81715e-09][1.61931e-06][6.3836e-06][1.52224e-05][4.44319e-05][0.000122168][0.00034745][0.000799342][0.00131536][0.00178704][0.00195214][0.00195226][0.00171019][0.00128722][0.000853043][0.000709296][0.000650326][0.000448264][0.000258511][0.000149136][8.53256e-05][5.12953e-05][2.75896e-05][1.17391e-05][3.39023e-06][1.29202e-06][1.13892e-10][0][0][5.39771e-07][1.99743e-06][3.80093e-06][2.26613e-05][8.61215e-05][0.000274107][0.00059874][0.000938691][0.0011696][0.00121401][0.00113959][0.00100166][0.000718275][0.000476512][0.000435036][0.000425001][0.000315153][0.000193395][0.00010885][6.18996e-05][3.77901e-05][1.86612e-05][5.58203e-06][1.59489e-06][6.72327e-07][0][0][0][-1.04527e-07][-4.34691e-07][-1.90869e-06][-4.00305e-08][8.7438e-06][4.78971e-05][0.000112692][0.000193175][0.000236027][0.000261132][0.000280952][0.000281023][0.000226022][0.000195972][0.000241579][0.000293788][0.000244167][0.000150677][8.56374e-05][4.84607e-05][2.82132e-05][1.79407e-05][2.03992e-06][3.29836e-08][-7.43126e-08][0][0][0][4.77272e-08][-4.93917e-07][-3.38651e-06][-2.75998e-06][-4.83726e-06][-1.11323e-05][9.49922e-06][3.27787e-05][2.09682e-05][4.64516e-05][7.31794e-05][5.12221e-05][3.03659e-05][4.71602e-05][0.000104682][0.000165686][0.00014759][9.21898e-05][5.00254e-05][2.85259e-05][1.76895e-05][9.39406e-06][6.62943e-07][-1.04007e-07][-1.2433e-07][0][0][0][0][1.40652e-09][4.1e-07][1.05384e-06][-4.82367e-07][-2.00961e-06][-1.29459e-06][-2.15056e-06][-1.25082e-05][-9.08206e-06][-2.12573e-05][-3.7917e-05][-2.34479e-05][-9.61541e-07][1.58299e-05][2.15373e-05][1.82871e-05][1.84888e-05][1.37372e-05][6.13928e-06][2.47121e-06][7.03244e-07][2.74058e-09][-6.3246e-13][0][0][0][0][0][0][-2.86785e-10][-7.22201e-10][-5.12707e-09][-8.86556e-08][-1.38268e-07][-6.34197e-08][-5.68834e-07][-7.77539e-07][-2.63849e-06][-2.40616e-06][-1.74156e-06][-1.16036e-06][-1.62508e-06][-2.87298e-06][-2.05151e-06][-1.01168e-06][-2.1834e-07][2.84806e-08][1.00883e-07][-4.86025e-08][0][0][0][0]
Neuron=5 weights:
[0][0][0][0][0][0][0][0][0][0][0][0][1.29658e-09][2.8423e-08][2.847e-08][1.18625e-09][0][0][0][0][0][0][0][0][0][0][0][0][0][0][0][0][3.0897e-09][9.07502e-09][-8.70139e-11][-3.25145e-08][-1.21373e-07][-2.09132e-07][-1.76961e-07][-1.43043e-06][-9.48495e-07][-5.64058e-07][-7.93195e-07][7.05118e-07][2.22395e-06][-6.8496e-07][-1.18946e-06][-4.8821e-07][-9.48293e-07][-2.99382e-07][-1.12655e-08][-1.56615e-08][0][0][0][0][0][0][-1.02054e-10][-8.50113e-08][8.60733e-08][6.80303e-08][1.82741e-07][2.76563e-07][5.3194e-07][7.5376e-07][-2.73835e-06][-6.97742e-06][-3.21635e-06][-2.82932e-08][7.5397e-06][2.48356e-05][3.16082e-05][2.29489e-05][6.19938e-06][2.86324e-06][3.40516e-06][8.05359e-07][-4.18199e-07][-4.44724e-07][-3.2118e-07][-2.34378e-07][0][0][0][0][-2.34724e-07][-3.03558e-07][2.16906e-08][4.2469e-07][1.00723e-06][1.65166e-06][5.21338e-06][1.29084e-05][1.10638e-05][1.99996e-05][4.00527e-05][4.99736e-05][6.92003e-05][0.000103431][0.000110875][6.99288e-05][3.43458e-05][2.25279e-05][7.74606e-06][-2.7689e-06][-3.31192e-06][-2.70139e-06][-7.49407e-07][-8.63868e-08][-1.83641e-08][0][0][2.76984e-11][-6.68355e-07][-7.24828e-09][1.80503e-06][8.16948e-06][1.85729e-05][4.50143e-05][8.91479e-05][0.00014547][0.000209268][0.000276138][0.000245367][1.13584e-05][-0.000305744][-0.000394984][-0.000280273][-0.000383378][-0.000580297][-0.000503089][-0.000282454][-0.00016015][-9.38636e-05][-5.44819e-05][-2.3047e-05][-3.31537e-06][-4.85032e-07][1.24202e-09][0][0][-4.37811e-07][9.49394e-07][1.4134e-05][4.15186e-05][8.51249e-05][0.000134198][0.00024375][0.000371646][0.000488746][0.000586678][0.000469271][-2.86432e-05][-0.000636467][-0.000872642][-0.00085193][-0.00102589][-0.00125106][-0.0010391][-0.000641963][-0.000427469][-0.000292623][-0.00017664][-8.2043e-05][-2.13716e-05][-4.6614e-06][-1.22708e-07][0][6.48608e-09][2.16398e-07][6.1238e-06][3.07254e-05][7.59427e-05][0.000142088][0.000222339][0.000362074][0.000490063][0.000602969][0.000629985][0.000355228][-0.00036602][-0.00108382][-0.00128627][-0.00123162][-0.00130366][-0.00137256][-0.00105343][-0.000618494][-0.000481306][-0.000380166][-0.000258319][-0.00014215][-5.40191e-05][-1.13277e-05][-5.7537e-07][1.25755e-15][1.26688e-07][9.50317e-07][5.20318e-06][2.97088e-05][8.65347e-05][0.000175088][0.000265315][0.000345809][0.000418111][0.000439548][0.000287745][-0.000129093][-0.000905965][-0.00153516][-0.00164655][-0.00153495][-0.00134831][-0.00115458][-0.000638966][-0.000375955][-0.000376618][-0.000343476][-0.000261673][-0.000162829][-6.80119e-05][-1.47704e-05][-2.79845e-07][-1.49678e-07][1.14916e-07][1.50174e-06][4.93804e-06][2.71174e-05][8.53653e-05][0.000156244][0.000212383][0.000188991][0.000127662][1.08265e-05][-0.00025162][-0.00063397][-0.00136187][-0.00184979][-0.00187678][-0.00165546][-0.00116443][-0.000767439][-0.000162745][-0.000150882][-0.000251333][-0.000280282][-0.000245492][-0.000159077][-7.15121e-05][-1.16813e-05][-3.27223e-07][-3.41479e-11][1.87069e-07][1.82186e-06][7.78976e-06][2.78546e-05][7.50232e-05][0.000115902][7.67766e-05][-7.23209e-05][-0.000253288][-0.000445065][-0.000669207][-0.000935316][-0.00150416][-0.00189646][-0.00199374][-0.00158479][-0.000942972][-0.000326664][8.70193e-05][-5.4357e-05][-0.000175311][-0.000225619][-0.000205546][-0.000130249][-5.44166e-05][-8.68382e-06][-1.7696e-07][-3.69316e-11][4.16719e-07][1.83625e-06][9.44569e-06][2.17059e-05][5.0449e-05][5.41752e-05][-6.51471e-05][-0.000296263][-0.000547681][-0.000726936][-0.0008565][-0.000900929][-0.00135434][-0.00188039][-0.00211372][-0.00147105][-0.000729785][1.40953e-05][9.29998e-05][-4.9134e-05][-0.000129117][-0.000154487][-0.0001323][-8.02364e-05][-3.43331e-05][-5.06357e-06][-7.52827e-08][2.78919e-09][3.6562e-07][1.34757e-06][7.03282e-06][1.46806e-05][2.96911e-05][1.02821e-05][-0.000151923][-0.000423436][-0.000683068][-0.000822329][-0.000764624][-0.000600559][-0.00116158][-0.00196979][-0.00216833][-0.00143627][-0.000472487][0.000113869][7.14869e-05][-2.84798e-05][-9.17099e-05][-9.27623e-05][-6.35096e-05][-3.52209e-05][-1.57543e-05][-1.31262e-06][-2.8395e-07][-4.85309e-10][-8.68043e-08][8.92671e-08][4.38635e-06][1.29407e-05][2.9336e-05][-1.02887e-05][-0.000187824][-0.000476301][-0.000703623][-0.000707591][-0.000413542][-0.000312209][-0.00122342][-0.00225553][-0.00228648][-0.0013355][-0.000164409][0.000147832][0.000101644][3.57684e-06][-6.57352e-05][-5.66828e-05][-2.76162e-05][-4.61001e-06][-3.00541e-06][-1.82544e-06][-3.76148e-07][-3.25855e-08][-3.31715e-07][-1.33102e-07][3.85996e-06][1.38596e-05][3.28465e-05][-2.82516e-05][-0.000213115][-0.000453907][-0.000570374][-0.000416817][-7.58966e-05][-0.000302368][-0.00165395][-0.00266082][-0.0024527][-0.000978021][0.00014306][0.000259661][0.000177411][5.15508e-05][-4.71006e-05][-4.878e-05][-4.55913e-06][1.05943e-05][1.60061e-06][-6.17481e-07][-3.53068e-08][4.67945e-10][-9.07491e-08][-1.14889e-07][1.39344e-06][1.25222e-05][2.6119e-05][-5.16137e-05][-0.000205148][-0.000369458][-0.000384757][-0.000192315][-5.11276e-05][-0.000726712][-0.00228431][-0.00303395][-0.00251056][-0.000610482][0.000246377][0.000317547][0.0002416][9.14042e-05][-1.74497e-05][-3.36286e-05][8.77033e-06][1.17589e-05][4.01883e-06][1.74384e-07][6.73823e-09][1.53225e-10][9.24258e-10][1.90304e-06][2.38517e-06][1.43602e-05][1.69467e-05][-6.86928e-05][-0.000195284][-0.000283384][-0.000220612][-0.000111021][-0.000275369][-0.00136749][-0.00275822][-0.00325068][-0.00234895][-0.000448521][0.000157069][0.000263956][0.000240285][0.000140998][4.98145e-05][2.71962e-05][2.50851e-05][8.14145e-06][5.41983e-06][1.82304e-06][3.82618e-07][2.61086e-14][4.28768e-07][3.74483e-06][1.08978e-05][2.00766e-05][6.76585e-06][-7.77872e-05][-0.000172711][-0.000191511][-0.000108433][-7.66054e-05][-0.00058701][-0.00175686][-0.00286784][-0.00315199][-0.00203597][-0.000485749][5.08108e-05][0.000227691][0.000266091][0.000194643][0.00010841][7.55472e-05][3.49835e-05][1.44993e-05][1.09102e-05][1.74903e-06][6.00257e-07][0][-5.69512e-08][3.43303e-06][2.66879e-05][4.17259e-05][-5.95298e-06][-8.43669e-05][-0.000147933][-0.000115464][-2.86187e-05][-0.000159318][-0.00092366][-0.00188573][-0.00273198][-0.0028324][-0.00178291][-0.000508928][3.6049e-05][0.000292931][0.000331355][0.000224053][0.000126457][7.40256e-05][3.1296e-05][1.94387e-05][1.18089e-05][6.02663e-07][1.437e-07][-1.08648e-08][-2.5529e-08][6.30453e-06][4.3075e-05][6.5253e-05][1.37633e-06][-9.00272e-05][-0.000147438][-7.57219e-05][-3.94047e-05][-0.000356602][-0.00120488][-0.00194102][-0.00255696][-0.00248491][-0.00155151][-0.000380512][0.000170336][0.000389622][0.000381377][0.00023726][0.000118921][6.802e-05][4.33141e-05][2.79913e-05][1.01013e-05][-1.31425e-07][2.45218e-07][-5.61201e-08][-2.21207e-07][6.40445e-06][5.10755e-05][9.04467e-05][4.07184e-05][-6.68592e-05][-0.000146553][-0.000111946][-0.000178284][-0.000680999][-0.00144349][-0.00198219][-0.00232472][-0.00208029][-0.00126111][-0.000166291][0.000342175][0.000421246][0.000319593][0.000174143][9.59274e-05][5.95216e-05][4.16727e-05][2.48207e-05][6.9788e-06][-1.31401e-06][-6.98869e-08][0][4.89237e-07][7.35574e-06][5.30683e-05][0.000112627][8.73001e-05][-1.17742e-05][-0.000114919][-0.000218995][-0.000457069][-0.000998246][-0.00152738][-0.00179387][-0.00190673][-0.00159705][-0.00092267][-9.40965e-06][0.000348813][0.000285606][0.000165833][7.73963e-05][5.08593e-05][3.28842e-05][2.48264e-05][1.47199e-05][2.63826e-06][-5.91143e-07][-3.03005e-07][-1.981e-08][1.99951e-07][9.65094e-06][5.06396e-05][0.000108194][0.000124918][7.35695e-05][-1.93757e-05][-0.000229708][-0.000657249][-0.00115725][-0.00145709][-0.00144908][-0.00140998][-0.00121088][-0.00073024][-0.000120229][0.000122074][9.13959e-05][1.65652e-05][-2.13369e-07][1.90474e-06][1.0167e-05][1.14895e-05][8.32583e-06][3.13532e-06][-5.4207e-07][7.29033e-08][-1.91909e-08][2.87663e-09][9.33932e-06][3.35728e-05][8.19874e-05][0.000122504][0.000137151][3.90877e-05][-0.000236344][-0.00069114][-0.00116085][-0.00130473][-0.00116849][-0.00109402][-0.00107908][-0.00077732][-0.000365485][-0.000135346][-0.000102393][-6.88428e-05][-2.29529e-05][-6.81187e-07][1.70107e-06][1.87974e-06][3.53074e-06][1.01058e-06][-1.17143e-06][1.34591e-07][0][0][3.85403e-06][1.68328e-05][5.04161e-05][9.04264e-05][0.000118715][6.46137e-05][-0.000182568][-0.000578585][-0.000961535][-0.00106503][-0.000877251][-0.000858381][-0.000965457][-0.000766045][-0.000428409][-0.000221473][-0.000125383][-5.98997e-05][-2.21461e-05][-3.50845e-06][1.57685e-06][2.89817e-06][3.77696e-07][-8.50769e-08][-9.35783e-07][0][0][0][1.59207e-06][8.21114e-06][2.28498e-05][4.58894e-05][6.65671e-05][5.91729e-05][2.59603e-06][-0.000103896][-0.000224803][-0.000279594][-0.000217254][-0.000220034][-0.000266713][-0.000192623][-0.000108285][-7.38012e-05][-5.27529e-05][-3.24228e-05][-1.2231e-05][-2.64261e-06][-4.34723e-07][-6.7369e-08][-1.09579e-08][-2.68678e-07][-3.67199e-08][0][0][0][6.42821e-08][6.44209e-07][3.59051e-06][8.68001e-06][1.06878e-05][1.06171e-05][5.9215e-06][-1.56669e-06][7.93787e-07][9.51038e-06][4.07245e-05][6.55455e-05][3.7019e-05][2.83976e-05][2.26427e-05][1.05928e-05][1.45303e-07][-5.01085e-06][-1.34194e-06][-1.29233e-07][-2.12025e-07][-4.0312e-07][-8.46692e-10][7.43402e-11][1.83218e-14][0][0][0][0][-3.81839e-10][7.09946e-07][1.64226e-06][6.04722e-07][-6.16286e-07][-1.21876e-06][-1.59254e-06][-1.33594e-06][2.06187e-06][1.6683e-05][2.29688e-05][1.18236e-05][1.08355e-05][1.19681e-05][1.04108e-05][4.24857e-06][1.24905e-06][-9.11589e-08][2.47918e-07][2.05765e-08][2.08887e-10][-6.51646e-14][-1.38191e-10][0][0][0][0][0][0][3.23224e-12][-2.79353e-10][-8.97242e-09][-1.30457e-08][1.97437e-08][3.56982e-07][2.74871e-07][1.26123e-06][3.59815e-06][2.39617e-06][1.54316e-06][1.03803e-06][2.44246e-07][8.82867e-10][-1.62392e-07][-9.76734e-08][-6.59005e-10][3.96558e-09][9.15622e-09][2.95415e-09][0][0][0][0]
Neuron=6 weights:
[0][0][0][0][0][0][0][0][0][0][0][0][1.6757e-08][3.6177e-07][3.6175e-07][1.50729e-08][0][0][0][0][0][0][0][0][0][0][0][0][0][0][0][0][-2.13046e-08][-5.40765e-08][2.93427e-07][5.96914e-07][8.89318e-07][1.12135e-06][1.24248e-06][1.49007e-06][8.76701e-07][-7.6025e-07][-3.28747e-07][-1.41746e-06][-1.08475e-06][-2.67609e-07][-9.3738e-07][-1.19179e-06][-6.59409e-07][-8.95451e-08][-9.37958e-09][-7.39916e-10][0][0][0][0][0][0][2.33082e-10][2.19863e-10][1.61266e-07][2.20032e-07][1.95426e-06][3.37868e-06][5.84337e-06][1.00274e-05][1.4217e-05][2.08994e-05][1.85256e-05][8.54473e-06][4.60772e-07][-6.04861e-06][-1.70516e-05][-2.89221e-05][-1.91793e-05][-1.16729e-05][-9.20749e-06][-5.11921e-06][-1.41763e-06][8.79583e-07][1.68621e-06][6.73819e-07][0][0][0][0][1.28252e-07][5.63809e-08][7.38433e-07][3.01631e-06][6.54639e-06][1.95435e-05][4.47303e-05][8.23927e-05][0.00012282][0.000169749][0.000205125][0.00023256][0.000230022][0.000221223][0.000178154][0.000135174][0.000117763][9.23851e-05][6.02895e-05][3.37937e-05][1.91212e-05][8.2066e-06][5.21197e-06][7.96871e-07][2.72895e-09][0][0][7.25645e-13][3.7993e-07][2.78417e-07][-6.81867e-08][3.98646e-06][1.90706e-05][5.76406e-05][0.00012385][0.000223596][0.000366712][0.000553934][0.000773143][0.00100655][0.00133773][0.0016687][0.00184836][0.00159902][0.00108787][0.000748178][0.000493967][0.000300502][0.000164475][8.16006e-05][2.87175e-05][5.47837e-06][5.81748e-07][-2.41522e-09][0][0][6.94754e-08][-1.05513e-06][-3.77381e-06][9.36242e-06][5.49635e-05][0.000140752][0.000265085][0.00048378][0.000791288][0.00121211][0.00160933][0.00209323][0.00265049][0.00325736][0.0035962][0.00326125][0.00248066][0.00175852][0.00120827][0.000786497][0.000483654][0.000284021][0.000129773][3.41189e-05][6.7518e-06][2.29803e-07][0][-1.61884e-08][1.23894e-06][-4.17237e-06][-2.77922e-06][4.00284e-05][0.000144085][0.000300909][0.000566982][0.000990043][0.00153628][0.00215832][0.00270469][0.00321099][0.00379613][0.00450539][0.00476925][0.00441103][0.00364364][0.00280013][0.00201611][0.00136373][0.000860651][0.000516828][0.000252383][8.17967e-05][1.7158e-05][1.32448e-06][1.23722e-09][6.38274e-07][6.45695e-06][6.21294e-06][3.50342e-05][0.000140854][0.00033552][0.000631747][0.00112923][0.00183312][0.00266576][0.00333019][0.00369954][0.00401562][0.00463455][0.00547259][0.00560284][0.00511208][0.00439227][0.00366943][0.00276801][0.00187645][0.00120568][0.000695439][0.000348994][0.000135709][2.44627e-05][1.47717e-06][5.02852e-09][2.69059e-06][1.94971e-05][5.20211e-05][0.000126145][0.000272413][0.00053933][0.000990631][0.00170067][0.00257586][0.00339972][0.00383447][0.00389388][0.00408739][0.00481122][0.00563748][0.0056906][0.00509765][0.00443217][0.00382225][0.00302511][0.00208055][0.0013019][0.000728704][0.000346626][0.000134753][2.44725e-05][5.98104e-07][1.1552e-09][4.6187e-06][3.13006e-05][9.00972e-05][0.000190938][0.000370001][0.000678457][0.00120728][0.00200235][0.00288274][0.00345292][0.00349674][0.00327683][0.00342639][0.00418101][0.00500052][0.00499352][0.00443354][0.00392167][0.00350197][0.00282796][0.0019683][0.00123096][0.000618263][0.000232911][7.6581e-05][1.28313e-05][1.72526e-06][5.83156e-10][5.36677e-06][2.81594e-05][8.48579e-05][0.000183915][0.000392516][0.000773563][0.00138608][0.00216193][0.00286925][0.00313955][0.00291997][0.00257277][0.00273899][0.00360181][0.00427775][0.00419924][0.00374663][0.00339901][0.00308373][0.00253421][0.00178087][0.00109413][0.000517798][0.000150733][2.32024e-05][5.14529e-06][4.35274e-07][1.25349e-09][3.93556e-06][2.28852e-05][6.17967e-05][0.000147945][0.000362306][0.000827249][0.00151272][0.00227318][0.00283756][0.00294449][0.00260528][0.00217834][0.00246669][0.00338917][0.00397613][0.00383308][0.00340718][0.00312038][0.0027723][0.00229803][0.00162015][0.0010086][0.000508035][0.000143269][1.11764e-05][1.96785e-06][1.35693e-07][1.97839e-08][2.34509e-06][2.0483e-05][5.19933e-05][0.000132954][0.000381469][0.000918159][0.00163804][0.00238256][0.00288674][0.00296577][0.00249253][0.00204386][0.00257401][0.0036294][0.00418151][0.00385696][0.00338399][0.0030236][0.0026078][0.00212406][0.00147155][0.000947031][0.00051969][0.000160054][9.48931e-06][1.91721e-06][3.64781e-07][1.26893e-07][6.71063e-07][1.24174e-05][3.61748e-05][0.000129576][0.000446072][0.00103668][0.00172861][0.0024157][0.00299171][0.00300579][0.0024851][0.00224605][0.00315409][0.00424452][0.00461848][0.00400463][0.00348417][0.00302598][0.00250117][0.00196341][0.00137548][0.000912115][0.00052078][0.000182416][1.61052e-05][4.56185e-06][7.28898e-07][7.12448e-08][4.05296e-09][3.53398e-06][2.54451e-05][0.000147586][0.000554227][0.00115465][0.00177154][0.00246329][0.00300466][0.00295294][0.00254944][0.00265298][0.00394928][0.00484153][0.00496419][0.00409855][0.00362664][0.00310526][0.00248698][0.00193686][0.00135466][0.00089251][0.000507746][0.000201083][2.35321e-05][5.47704e-06][4.73546e-08][2.37734e-08][-5.88501e-08][8.82289e-07][2.43046e-05][0.000184158][0.000698456][0.00130052][0.00184374][0.00246791][0.00285853][0.00274464][0.00253863][0.00306922][0.00445807][0.00512663][0.00491862][0.00399907][0.00368838][0.00319332][0.00254787][0.00191606][0.00134203][0.000869683][0.000481294][0.000205316][3.09121e-05][7.09076e-06][4.98509e-07][2.54532e-09][-1.82578e-07][-3.40154e-07][2.33442e-05][0.000255679][0.00086566][0.00146272][0.00192267][0.00238079][0.0025716][0.00240529][0.00241346][0.00337479][0.00466532][0.00509672][0.00449553][0.00379155][0.00369316][0.00327087][0.002557][0.00182949][0.00129366][0.000821222][0.000453916][0.000199425][4.53803e-05][9.6894e-06][4.11406e-07][0][-2.33859e-09][-9.48704e-07][3.33079e-05][0.000347834][0.00102987][0.00159904][0.00200369][0.00224392][0.00218083][0.00199344][0.00230209][0.00349664][0.00462148][0.00476755][0.00394685][0.00363567][0.00372649][0.00328536][0.00242621][0.00170548][0.00119239][0.00076437][0.000444269][0.000209641][6.29179e-05][1.25942e-05][8.46325e-07][1.95104e-08][4.01293e-08][-1.81383e-06][5.10246e-05][0.000417942][0.00112613][0.00170379][0.00208748][0.0021623][0.00198767][0.00188833][0.00243742][0.00368886][0.00457823][0.00443797][0.00368171][0.00370287][0.00383753][0.00323641][0.00227983][0.00157111][0.00109516][0.000749836][0.000455223][0.000217862][6.76221e-05][1.05793e-05][8.90578e-07][4.18572e-08][-2.17087e-07][-8.76124e-07][4.97829e-05][0.000422237][0.00111628][0.00175541][0.00220128][0.00234106][0.00227243][0.00235532][0.00303493][0.00409756][0.00463736][0.00424146][0.00370312][0.00387949][0.00378606][0.00300797][0.00208293][0.00144513][0.0010165][0.000701046][0.000422584][0.000192123][6.3071e-05][9.24597e-06][5.83682e-07][0][-9.2729e-07][-1.83014e-07][4.35756e-05][0.000354975][0.000962905][0.00162542][0.00224342][0.00262884][0.0028473][0.0032307][0.00388058][0.00461884][0.00478444][0.00424531][0.00379064][0.00383965][0.0034497][0.00256394][0.00178502][0.00124465][0.000856741][0.000565198][0.000325454][0.000153907][4.59292e-05][6.49129e-06][7.98708e-09][1.21748e-08][-5.20677e-07][-2.87815e-07][3.01947e-05][0.000235596][0.000687654][0.00125825][0.00195934][0.0026147][0.00321619][0.00385129][0.00449646][0.00500694][0.0048809][0.00425433][0.00369129][0.00342718][0.00278453][0.00197157][0.00136064][0.000916054][0.000594592][0.000362963][0.000202361][9.01845e-05][2.53744e-05][3.35006e-06][8.11441e-09][1.17943e-08][-2.10402e-08][-1.19431e-06][1.50013e-05][0.000104995][0.000374414][0.000796495][0.00134776][0.0020912][0.00289705][0.0037561][0.0044416][0.00486697][0.00461792][0.00384381][0.00308386][0.00264937][0.00202112][0.00140038][0.000881279][0.000541278][0.000329383][0.000198713][0.000104218][3.75512e-05][7.79652e-06][4.30654e-07][1.49805e-08][0][0][-1.8992e-07][-1.3627e-06][2.76695e-05][0.000135611][0.000343242][0.000721616][0.00124562][0.00189931][0.00268272][0.00333925][0.00371306][0.00346001][0.00265689][0.00209022][0.00178283][0.00133251][0.000844683][0.00048165][0.00026321][0.000145118][8.56695e-05][4.31364e-05][1.13983e-05][2.39383e-06][2.29194e-07][0][0][0][1.15916e-07][1.37765e-06][9.14519e-06][3.68511e-05][0.000135259][0.000333791][0.000540393][0.000799684][0.00106705][0.0012892][0.00147785][0.00150813][0.00130358][0.00120938][0.00108422][0.000808411][0.000500196][0.000261807][0.000129473][6.14676e-05][3.06917e-05][1.28166e-05][2.69079e-06][4.42278e-07][2.42312e-08][0][0][0][-3.73084e-09][1.41335e-06][7.3617e-06][2.56809e-05][9.66388e-05][0.000205735][0.000274835][0.000317678][0.000316558][0.00037681][0.000526967][0.00060763][0.000578608][0.000607396][0.000609262][0.000482143][0.000303077][0.000145252][6.35139e-05][2.61756e-05][1.2353e-05][4.37178e-06][5.80887e-07][5.80574e-08][2.47667e-08][0][0][0][0][1.42904e-07][3.12166e-06][1.35022e-05][4.58756e-05][7.65402e-05][8.99574e-05][8.91504e-05][7.39718e-05][9.6577e-05][0.000178709][0.000231197][0.000231399][0.00023916][0.000251252][0.000204599][0.000123772][4.69442e-05][1.79294e-05][8.92278e-06][5.0454e-06][1.22217e-06][8.92196e-12][2.46429e-07][0][0][0][0][0][0][4.76004e-09][1.2044e-08][6.36124e-08][3.38334e-07][5.72279e-07][7.07424e-07][3.5261e-06][7.75526e-06][1.68556e-05][2.28447e-05][2.34821e-05][2.90509e-05][4.13487e-05][3.76179e-05][2.05266e-05][6.23652e-06][3.66987e-06][1.53534e-06][1.6692e-06][2.75515e-07][0][0][0][0]
Neuron=7 weights:
[0][0][0][0][0][0][0][0][0][0][0][0][-3.43511e-09][-1.43796e-08][-7.63155e-09][-3.17981e-10][0][0][0][0][0][0][0][0][0][0][0][0][0][0][0][0][-4.46564e-09][-1.59974e-08][-3.3695e-07][-1.0729e-06][-3.19547e-06][-1.96225e-06][-1.43377e-06][-3.42036e-06][-3.30515e-06][-2.33834e-06][-2.95498e-06][-1.63399e-06][1.32517e-06][1.8326e-06][4.44653e-06][5.98959e-06][3.87119e-06][1.7071e-06][8.39314e-07][5.06319e-08][0][0][0][0][0][0][-2.15087e-10][-2.80253e-09][4.56667e-07][-3.53516e-08][-1.14535e-06][-2.40328e-06][-5.32293e-06][-6.91262e-06][-6.77196e-06][-7.34322e-06][6.11893e-06][4.75165e-05][9.06131e-05][9.94279e-05][0.00010871][0.000124801][0.000137741][0.0001075][6.08715e-05][3.25258e-05][1.75474e-05][4.92925e-06][1.7758e-06][2.87708e-07][0][0][0][0][-3.7872e-07][1.4755e-07][9.47332e-08][-2.09917e-06][-4.86644e-06][-1.07182e-05][-2.3969e-05][-4.91917e-05][-7.17173e-05][-8.44672e-05][-5.22833e-05][2.83557e-05][0.00012768][0.000184194][0.000215321][0.00025158][0.000251341][0.000188775][0.00010761][6.26685e-05][3.37418e-05][1.52661e-05][5.23854e-06][5.9484e-07][4.85906e-08][0][0][-2.48991e-12][-1.27014e-06][2.85987e-07][-8.9346e-07][-7.90067e-06][-7.11179e-06][-2.32421e-05][-5.72091e-05][-0.000104269][-0.000185292][-0.000301005][-0.000481577][-0.000810241][-0.00116273][-0.00122456][-0.00101485][-0.000896005][-0.000967707][-0.000898552][-0.00059619][-0.000292502][-0.000143779][-7.16137e-05][-3.42648e-05][-5.54996e-06][-5.05692e-07][3.16541e-09][0][0][-3.76744e-07][1.57754e-06][8.55268e-06][1.29285e-05][4.91135e-06][-2.23482e-05][-9.45528e-05][-0.00023239][-0.000368211][-0.000526837][-0.000891993][-0.00172131][-0.00259266][-0.00286629][-0.00258347][-0.00243574][-0.00245376][-0.00210513][-0.00149337][-0.000928809][-0.000568169][-0.000337518][-0.000159229][-4.16038e-05][-3.62486e-06][-3.54804e-08][0][2.52185e-08][5.86084e-08][1.33069e-05][3.02075e-05][3.26868e-05][-2.47223e-06][-8.78208e-05][-0.000267996][-0.000498361][-0.000649555][-0.000845459][-0.00130975][-0.00226027][-0.00334899][-0.00378683][-0.00365988][-0.00352729][-0.00344781][-0.00281059][-0.00191902][-0.00127393][-0.000844556][-0.000529053][-0.000262066][-8.69706e-05][-1.28635e-05][-8.11263e-07][-9.82272e-14][5.66406e-07][-3.51885e-07][1.61095e-05][2.57486e-05][-5.23624e-06][-7.34948e-05][-0.000270518][-0.000592214][-0.000886351][-0.0010008][-0.00114787][-0.0015262][-0.00251307][-0.00378602][-0.00442906][-0.00452852][-0.00440879][-0.00403405][-0.00304374][-0.00196626][-0.00128867][-0.000883927][-0.000542986][-0.000251753][-9.03459e-05][-1.66207e-05][-5.71612e-07][-3.17289e-09][-2.34765e-07][-3.14247e-07][1.45118e-05][-3.1034e-06][-6.1459e-05][-0.000192152][-0.000508627][-0.000915449][-0.00115904][-0.00121217][-0.00129073][-0.00162957][-0.00277949][-0.0042352][-0.00507182][-0.00516623][-0.00482624][-0.00412305][-0.00279387][-0.00170062][-0.00107408][-0.000710452][-0.000396836][-0.000169448][-5.77716e-05][-9.97792e-06][-6.753e-08][-3.02901e-09][-4.67172e-07][-2.59994e-06][3.6012e-06][-3.05357e-05][-0.000113883][-0.00031471][-0.000689944][-0.0010787][-0.00125663][-0.00127551][-0.00134877][-0.00162105][-0.00286598][-0.00445853][-0.0054573][-0.00527706][-0.00458714][-0.00356738][-0.00229552][-0.00137303][-0.000864752][-0.000532913][-0.000263816][-9.01441e-05][-3.10444e-05][-4.61458e-06][-4.2407e-07][-3.6063e-09][-1.2831e-06][-6.96958e-06][-1.46214e-05][-5.01611e-05][-0.000159617][-0.000417369][-0.000817437][-0.00113011][-0.00124468][-0.00123513][-0.00116286][-0.00136591][-0.00270787][-0.0045677][-0.00565342][-0.00506526][-0.00406245][-0.00281671][-0.00182111][-0.00113063][-0.000681829][-0.000371073][-0.000163399][-5.3347e-05][-2.32439e-05][-6.7015e-06][-6.16139e-07][-1.10989e-08][-2.154e-06][-1.12987e-05][-2.63427e-05][-6.26611e-05][-0.000183128][-0.000479559][-0.000880595][-0.00116732][-0.00123171][-0.0011268][-0.000837567][-0.000968341][-0.00269217][-0.00499836][-0.00588656][-0.00485093][-0.00346104][-0.00224939][-0.00147931][-0.000890109][-0.000473349][-0.000254062][-0.000111279][-3.34828e-05][-1.19687e-05][-3.02272e-06][-4.15934e-07][-6.04488e-10][-2.55854e-06][-8.85196e-06][-2.80743e-05][-6.86471e-05][-0.000206207][-0.000526739][-0.000939507][-0.00122847][-0.00118787][-0.000925409][-0.000529022][-0.000830998][-0.00330211][-0.00580127][-0.00619099][-0.00463586][-0.00286905][-0.00184008][-0.00116871][-0.000666012][-0.000315847][-0.000168067][-8.92734e-05][-2.54679e-05][-7.07639e-06][-2.69704e-06][-4.52527e-07][-1.50883e-07][-1.68139e-06][-4.82037e-06][-2.10789e-05][-7.33997e-05][-0.000232436][-0.0005948][-0.00100896][-0.00129246][-0.00117617][-0.000805396][-0.000538026][-0.00128643][-0.00457265][-0.00670043][-0.00650647][-0.00417093][-0.00230519][-0.00144237][-0.000894464][-0.000501811][-0.000230195][-0.000139074][-9.115e-05][-3.27784e-05][-9.82863e-06][-4.54279e-06][-1.45132e-06][-8.42358e-09][-1.56956e-07][-2.18622e-06][-1.9674e-05][-8.02861e-05][-0.000276646][-0.000640766][-0.00107882][-0.00140514][-0.00127033][-0.000897088][-0.000841223][-0.00228722][-0.00594252][-0.00749864][-0.00664847][-0.00363258][-0.00184104][-0.0011178][-0.000692948][-0.000394056][-0.000207693][-0.0001645][-0.000125544][-5.03073e-05][-1.95666e-05][-2.56435e-06][-5.96105e-08][-2.75819e-09][-2.3612e-08][-7.19333e-07][-1.94293e-05][-8.61395e-05][-0.000315655][-0.000682521][-0.00109641][-0.00139332][-0.00131117][-0.00111929][-0.00145387][-0.00359927][-0.00695264][-0.00802757][-0.006357][-0.00321424][-0.0017112][-0.000969559][-0.000438397][-0.000213616][-0.000156464][-0.000199041][-0.000152482][-7.01314e-05][-2.74719e-05][-2.54479e-06][-1.20147e-08][-1.35927e-13][-1.84868e-08][-2.06045e-07][-9.84859e-06][-8.5219e-05][-0.000338922][-0.00073091][-0.00104825][-0.00119623][-0.00111848][-0.00114071][-0.0020492][-0.00458392][-0.00739687][-0.00788054][-0.00570645][-0.00308824][-0.00180215][-0.000927381][-0.000236604][-3.39908e-05][-9.87559e-05][-0.000205532][-0.000165069][-8.93064e-05][-3.73314e-05][-5.65568e-06][-1.49471e-07][0][-5.04749e-08][9.87124e-07][-1.52137e-06][-9.62577e-05][-0.000372493][-0.000713783][-0.00095514][-0.000932715][-0.000844845][-0.00117668][-0.00264089][-0.00494503][-0.0072508][-0.00715007][-0.0050988][-0.00290084][-0.00173465][-0.000803647][-0.000110506][6.1823e-05][-8.49378e-05][-0.000205695][-0.000197086][-0.000117323][-4.58524e-05][-6.74519e-06][-3.7758e-07][-9.9188e-09][-1.55712e-07][4.1067e-06][1.83539e-06][-0.000124974][-0.000438917][-0.000735082][-0.000885225][-0.000763278][-0.000792748][-0.00150247][-0.00310055][-0.00489444][-0.00667854][-0.00623023][-0.00460522][-0.00264423][-0.00151189][-0.00061436][-4.85139e-05][5.92803e-06][-0.000166279][-0.000257572][-0.00023692][-0.000134007][-3.59829e-05][-2.49607e-06][-1.12365e-06][-7.75249e-08][2.25694e-07][5.819e-06][-5.24165e-06][-0.000145052][-0.000447549][-0.000759351][-0.000892125][-0.000848215][-0.00107227][-0.00207918][-0.00330928][-0.00451813][-0.00573006][-0.00531037][-0.00398384][-0.00225936][-0.00118275][-0.00045363][-0.000116598][-0.000170233][-0.00027575][-0.000291134][-0.000238037][-0.00012341][-3.26087e-05][-2.28832e-06][-9.21823e-07][0][1.12804e-06][3.9598e-06][-1.00217e-05][-0.000141342][-0.000384387][-0.000732305][-0.000993195][-0.00121207][-0.00175647][-0.00269195][-0.00330548][-0.00388074][-0.00462696][-0.0043098][-0.00320447][-0.00186215][-0.00095577][-0.00046724][-0.000277848][-0.000313984][-0.00033585][-0.000297025][-0.000212169][-0.000112092][-2.94818e-05][-2.86054e-06][-5.69759e-07][-2.84369e-08][6.11166e-07][4.71027e-06][-5.95127e-06][-0.000111333][-0.000299028][-0.000640626][-0.00106585][-0.00160013][-0.00245779][-0.00312636][-0.00324955][-0.00324669][-0.00380212][-0.00365214][-0.00281299][-0.00178348][-0.000936123][-0.000533739][-0.000374946][-0.000354443][-0.00030993][-0.000258108][-0.000170852][-8.14176e-05][-2.14942e-05][-1.94874e-06][1.7591e-11][-2.75482e-08][7.24445e-08][5.46574e-06][8.86276e-06][-3.35192e-05][-0.000164313][-0.000444833][-0.000925794][-0.00170986][-0.00270806][-0.00332565][-0.00321598][-0.00311655][-0.00364856][-0.00365704][-0.00289611][-0.00194683][-0.00107311][-0.000629594][-0.000420388][-0.000327476][-0.000242821][-0.00016672][-9.78194e-05][-4.89288e-05][-1.3613e-05][-1.33449e-06][3.24757e-11][0][0][2.34832e-06][1.28451e-05][1.7877e-05][-2.85556e-05][-0.000184615][-0.000561231][-0.00126633][-0.00219877][-0.00277167][-0.00261815][-0.002511][-0.00310754][-0.00328174][-0.00258463][-0.00170085][-0.000945118][-0.000507921][-0.000314683][-0.000232495][-0.000146223][-8.53443e-05][-4.02682e-05][-1.97875e-05][-6.60697e-06][-1.85586e-06][0][0][0][3.60641e-07][6.65374e-06][1.52025e-05][1.83019e-05][-6.19227e-06][-0.000103874][-0.000323882][-0.000632432][-0.000844747][-0.000947803][-0.00106894][-0.00132917][-0.0013614][-0.00107848][-0.000770747][-0.000438444][-0.000244493][-0.000142997][-9.00788e-05][-5.58003e-05][-2.89275e-05][-1.3152e-05][-6.39732e-06][-4.05193e-06][-4.37772e-07][0][0][0][2.69056e-08][-1.03709e-07][1.38381e-07][3.54311e-06][4.00811e-06][8.96067e-08][-2.0385e-05][-0.000114539][-0.000215193][-0.000234711][-0.000199833][-0.000180315][-0.000175638][-0.0002058][-0.000218847][-0.00012551][-5.00032e-05][-2.39656e-05][-1.29436e-05][-8.9392e-06][-6.83873e-06][-2.82383e-06][-3.22202e-07][-3.82304e-07][-3.03821e-07][0][0][0][0][-1.27431e-10][4.99852e-08][-5.05172e-09][-1.72612e-06][-9.98978e-06][-2.8859e-05][-7.2912e-05][-0.000107904][-9.64645e-05][-4.90712e-05][-2.94485e-05][-3.58333e-05][-5.68573e-05][-6.93509e-05][-4.0823e-05][-8.28296e-06][1.42068e-07][3.86863e-07][-1.01976e-06][-1.5464e-06][-4.87039e-07][-1.81011e-11][-5.48208e-09][0][0][0][0][0][0][-1.69429e-08][-4.43848e-07][-5.82957e-07][-6.09575e-07][-6.55265e-07][-3.40517e-06][-7.68143e-06][-5.95083e-06][-4.16913e-06][-5.20008e-06][-8.57343e-06][-1.17175e-05][-1.15031e-05][-8.5461e-06][-2.08914e-06][-2.81987e-07][-8.22664e-09][-4.83884e-07][-5.47893e-07][-2.60853e-10][0][0][0][0]
Neuron=8 weights:
[0][0][0][0][0][0][0][0][0][0][0][0][-6.57628e-09][-1.38478e-08][6.1421e-10][2.55921e-11][0][0][0][0][0][0][0][0][0][0][0][0][0][0][0][0][-7.11998e-08][-2.22434e-07][-5.77707e-07][-8.98841e-07][-1.88997e-06][-3.2289e-06][-4.49041e-06][-3.27158e-06][-4.32011e-06][-1.24471e-05][-1.51401e-05][-9.71353e-06][-7.09173e-06][-8.6719e-06][-7.41197e-06][-1.65227e-06][-7.09887e-07][-2.23576e-07][-8.25339e-08][-6.14843e-08][0][0][0][0][0][0][-3.74351e-09][-3.5367e-09][1.78113e-08][-2.98204e-07][-2.00391e-06][-3.36331e-06][-7.52648e-06][-1.32777e-05][-2.60976e-05][-4.63336e-05][-8.53179e-05][-0.000126597][-0.000145203][-0.000147894][-0.000128134][-8.1773e-05][-2.56094e-05][1.5152e-05][2.04252e-05][1.04807e-05][2.47649e-06][-1.06515e-07][1.04086e-06][6.37779e-07][0][0][0][0][-1.09114e-08][-9.55769e-09][-2.59402e-08][1.77151e-06][7.03694e-07][-2.15984e-06][-5.8078e-06][-4.6676e-06][-1.56352e-05][-4.57555e-05][-9.56955e-05][-0.000124968][-0.000153883][-0.000107326][-2.28479e-05][4.78798e-05][8.58643e-05][0.000100641][7.47609e-05][2.81375e-05][3.76063e-06][7.65257e-07][1.48249e-06][5.4812e-07][-2.72924e-10][0][0][-5.11016e-08][-1.04509e-07][3.72362e-07][1.17308e-06][7.74001e-06][1.23928e-05][2.06098e-05][3.24756e-05][6.09046e-05][8.74735e-05][0.000142186][0.000217583][0.000378453][0.000503598][0.000636205][0.00071052][0.000654179][0.000528545][0.000326021][0.000153036][5.8644e-05][5.56858e-06][-8.17702e-06][-2.79533e-06][3.33235e-07][5.59215e-09][1.71337e-10][0][0][2.93728e-07][1.95571e-07][3.74492e-06][1.97744e-05][3.66265e-05][6.46393e-05][9.79415e-05][0.000126477][0.000202483][0.000373653][0.000639385][0.00101076][0.0013974][0.00170396][0.00180415][0.00166528][0.00129135][0.000827393][0.000456774][0.000203986][5.85795e-05][-3.83679e-06][-8.97533e-06][5.12207e-07][-3.87852e-07][-5.79581e-09][0][5.38407e-10][6.00505e-07][-1.56089e-06][1.17368e-05][4.95067e-05][9.43421e-05][0.000148107][0.000174989][0.000215159][0.000392813][0.000713576][0.00110046][0.00149932][0.00182233][0.00205915][0.00209966][0.00202843][0.00177921][0.00134683][0.00092951][0.000507682][0.000194131][4.07301e-05][-3.1651e-06][2.04717e-06][-5.96675e-07][6.70843e-07][5.20563e-10][3.58015e-07][4.25547e-06][7.01929e-06][4.3258e-05][0.000121295][0.000214405][0.000280119][0.000309704][0.000423542][0.000758798][0.00119617][0.00164836][0.00191038][0.00201285][0.0020047][0.00191733][0.00196398][0.00205252][0.00193331][0.00156725][0.000971637][0.000467044][0.000165846][4.02127e-05][1.29757e-05][3.30765e-06][9.06524e-07][7.12999e-08][2.01795e-06][9.99115e-06][3.06821e-05][8.91055e-05][0.000208729][0.000321448][0.000382798][0.000449289][0.00066526][0.00118361][0.00174601][0.00215468][0.00215495][0.00199581][0.00174294][0.00155062][0.00168678][0.00205543][0.00230096][0.00205294][0.0014287][0.000757016][0.000312923][0.000100755][2.8619e-05][8.07394e-06][1.361e-06][9.59741e-08][3.12092e-06][1.67783e-05][4.96626e-05][0.000117756][0.000235462][0.00034212][0.00040653][0.000493666][0.000847626][0.00146981][0.00197823][0.00215314][0.00191488][0.00155832][0.00118446][0.000973977][0.00125279][0.00180529][0.00230366][0.00230458][0.00177331][0.00100913][0.000427363][0.000144698][3.22022e-05][8.26747e-06][1.38245e-06][1.67246e-07][3.85396e-06][1.90087e-05][4.12991e-05][9.74077e-05][0.000189771][0.00029261][0.000345142][0.000464687][0.000901866][0.00149332][0.00180488][0.00168657][0.00124985][0.000785541][0.000396865][0.000331649][0.000856813][0.00152277][0.00204538][0.00225446][0.00188908][0.00115506][0.000489448][0.000152441][2.50686e-05][5.02676e-06][1.04896e-06][4.08615e-08][1.38258e-06][1.0774e-05][2.30516e-05][6.12351e-05][0.000133297][0.00021289][0.000276858][0.000474996][0.000886637][0.00125456][0.00137043][0.00106989][0.000555481][6.66005e-05][-0.000185575][2.68519e-05][0.000700365][0.00125585][0.00168844][0.00197359][0.00175514][0.00112146][0.000529828][0.000166307][1.74456e-05][5.37584e-06][4.19252e-08][5.9244e-08][4.79245e-07][3.32784e-06][6.15621e-06][2.6917e-05][0.000116798][0.000193617][0.000296412][0.000525896][0.00077042][0.000936452][0.000863969][0.000549406][7.43012e-05][-0.000379747][-0.000442159][-5.57533e-05][0.00051063][0.000869726][0.00123436][0.00149916][0.00141244][0.000994063][0.000552357][0.000187354][1.04025e-05][3.90041e-06][1.88914e-07][-1.37527e-10][1.07993e-07][1.45544e-06][2.01131e-06][2.74502e-05][0.000146408][0.000252609][0.000403641][0.000574062][0.000592952][0.000554724][0.000401502][0.000248011][-0.000102455][-0.000420208][-0.000299889][0.00010115][0.000365444][0.000436123][0.00071608][0.000974797][0.00105378][0.000832934][0.000535206][0.00021065][3.05833e-06][9.57199e-07][-2.93345e-08][-5.25332e-10][-1.5903e-07][6.02867e-07][-8.18916e-07][4.3194e-05][0.000220235][0.000374676][0.000560434][0.000626215][0.000439607][0.000263676][0.000201004][0.000205033][3.48721e-05][-5.1003e-05][0.000201413][0.000539475][0.000446997][0.000300797][0.00040863][0.000633106][0.00079782][0.000701432][0.000508116][0.000227947][-2.53726e-06][3.49078e-07][-1.9263e-08][-1.31587e-10][-2.05855e-07][-6.36648e-07][-9.07675e-08][6.95909e-05][0.000332099][0.00055878][0.000744426][0.000766231][0.00053172][0.000314855][0.000338406][0.000468733][0.000463847][0.00051367][0.000738468][0.000845749][0.000571328][0.000384907][0.000358196][0.000522908][0.000646203][0.000615875][0.000479264][0.000218767][-9.0655e-06][-4.88678e-07][-5.50087e-08][2.30995e-10][-1.00475e-07][-2.83188e-06][2.97415e-06][9.63585e-05][0.000431826][0.000766653][0.00100344][0.00105353][0.000832649][0.000645187][0.000739281][0.000885075][0.000923705][0.000941116][0.00108818][0.000927728][0.000623195][0.000490232][0.000473671][0.000536823][0.00057697][0.000557279][0.000420547][0.000165162][-8.64327e-06][4.2814e-07][4.261e-09][0][-1.63548e-07][-2.69951e-06][6.11898e-06][0.000111071][0.00049428][0.000941658][0.0012584][0.00136333][0.00117673][0.00092318][0.000894631][0.000905415][0.000911634][0.000981041][0.00108736][0.000866545][0.000665295][0.000676193][0.000625781][0.000615582][0.000557817][0.000502597][0.000317036][9.47054e-05][2.68627e-06][2.88096e-06][2.23181e-07][-3.44365e-08][-2.28032e-07][-4.49982e-06][1.60732e-06][9.25829e-05][0.000479692][0.000986481][0.00142774][0.00165586][0.00154342][0.001188][0.000852967][0.000685154][0.000699767][0.000857717][0.000974134][0.000804791][0.000811048][0.00086268][0.00077676][0.000674981][0.000548097][0.000409806][0.000197411][4.11797e-05][-2.36263e-06][6.08509e-07][-2.98404e-09][-1.86252e-08][-4.57878e-07][-1.00433e-05][-8.7294e-06][6.27035e-05][0.000397643][0.0009477][0.00151761][0.00190093][0.00195911][0.00153899][0.000970844][0.000627194][0.000647289][0.000889735][0.000989097][0.000984148][0.00100256][0.00100547][0.000841937][0.000700793][0.000552556][0.000329111][0.000119123][1.53988e-05][4.74039e-07][-1.68137e-07][-5.55054e-08][0][-6.16295e-07][-1.2995e-05][-1.82558e-05][3.99708e-05][0.000302824][0.00083071][0.00148656][0.00208649][0.0022718][0.00196831][0.00142499][0.00104584][0.00105546][0.00124706][0.0013106][0.00125014][0.00114309][0.000990317][0.0007694][0.000639891][0.000454476][0.000232454][8.11252e-05][2.44785e-05][3.05158e-06][1.12324e-06][-1.16698e-07][-3.47838e-09][-6.52736e-07][-6.84672e-06][-1.67126e-05][2.43329e-05][0.000206753][0.000644821][0.00129689][0.00196982][0.00235886][0.00232348][0.00205222][0.00183599][0.00174634][0.00179559][0.00168924][0.00140014][0.00106283][0.000795453][0.000557553][0.000395336][0.0002475][0.000133427][7.0661e-05][2.15e-05][3.29446e-06][1.35564e-06][1.91656e-09][-3.36968e-09][-2.90833e-08][-3.04609e-06][-7.33419e-06][1.10697e-05][0.00012323][0.000433928][0.000964299][0.00157664][0.00201935][0.00219887][0.00223175][0.00219101][0.00216177][0.00214802][0.00177767][0.00119161][0.000715383][0.000406244][0.000166751][8.63402e-05][7.84119e-05][6.73918e-05][3.24449e-05][5.74427e-06][-2.60387e-07][4.59758e-07][3.53827e-09][0][0][-1.01265e-06][-4.07399e-06][7.0768e-09][4.48578e-05][0.000203577][0.00054109][0.000989201][0.0013604][0.00155947][0.00162639][0.00159957][0.00159289][0.00146428][0.00102549][0.000509065][0.00016785][-2.21013e-05][-9.67339e-05][-6.4301e-05][-3.8915e-06][8.34441e-06][2.24047e-06][-3.8246e-06][-5.89845e-07][-8.18002e-09][0][0][0][7.31351e-08][2.33738e-07][2.89192e-06][1.8485e-05][9.27775e-05][0.000256289][0.000472063][0.000658894][0.000763071][0.000707958][0.000583958][0.000541833][0.000491152][0.000293598][6.57197e-05][-4.17669e-05][-8.76851e-05][-9.05046e-05][-6.93785e-05][-2.73359e-05][-1.03612e-05][-5.8314e-06][-8.24502e-07][-2.93778e-07][5.88171e-09][0][0][0][-7.4456e-10][5.4871e-07][4.69017e-06][2.39266e-05][7.31111e-05][0.000153164][0.000236769][0.000256628][0.000200791][0.000115855][9.13135e-05][0.000157814][0.00020552][0.000166097][5.98788e-05][-3.05075e-06][-2.48444e-05][-3.53255e-05][-2.79237e-05][-1.36878e-05][-6.78816e-06][-4.11708e-06][-9.54872e-07][-1.20719e-07][6.39632e-09][0][0][0][0][3.34547e-10][2.71163e-06][1.20156e-05][3.31528e-05][7.56052e-05][0.000108143][8.9091e-05][6.33904e-05][5.38521e-05][6.21736e-05][0.000114709][0.000147645][0.000121741][6.39252e-05][3.39575e-05][1.66429e-05][1.09411e-06][-3.20333e-06][-4.29787e-07][3.67021e-07][-1.13054e-07][-6.78344e-09][1.12898e-07][0][0][0][0][0][0][9.71966e-09][2.56332e-08][5.96349e-07][1.73734e-06][2.78687e-06][2.93318e-06][4.81507e-06][8.21344e-06][1.03599e-05][1.67237e-05][2.57662e-05][2.23716e-05][1.50515e-05][9.58075e-06][4.75637e-06][1.31798e-06][2.10194e-07][8.5552e-08][-4.72728e-08][2.15148e-08][0][0][0][0]
Neuron=9 weights:
[0][0][0][0][0][0][0][0][0][0][0][0][-1.90389e-08][-2.83601e-07][-2.69202e-07][-1.12168e-08][0][0][0][0][0][0][0][0][0][0][0][0][0][0][0][0][-3.5712e-09][-1.07395e-08][-1.22557e-06][-2.31502e-06][-1.91943e-06][-2.94394e-06][-4.71701e-06][-4.08813e-06][-6.99514e-06][-1.22807e-05][-1.21258e-05][-1.12542e-05][-1.40297e-05][-8.39216e-06][-4.67032e-06][-1.65105e-06][-1.77266e-06][-1.55518e-06][-5.05796e-07][-1.93498e-08][0][0][0][0][0][0][-6.37361e-08][-3.41067e-08][-2.54435e-07][-1.39953e-07][-2.36878e-06][-6.59229e-06][-1.09884e-05][-2.14426e-05][-3.29356e-05][-4.06059e-05][-9.78399e-05][-0.000198267][-0.000340348][-0.000388744][-0.000356241][-0.000252796][-0.000146761][-8.43712e-05][-6.04483e-05][-4.88945e-05][-2.49682e-05][-7.39156e-06][-3.01154e-06][-7.81813e-07][0][0][0][0][-1.41513e-07][-2.21841e-07][-3.50742e-07][-1.63485e-06][-5.37415e-06][-1.78204e-05][-3.99187e-05][-7.88618e-05][-0.000107902][-0.000162227][-0.000304014][-0.000541352][-0.000780586][-0.000883516][-0.000778787][-0.000573911][-0.000380355][-0.000280284][-0.000202276][-0.000118411][-5.9936e-05][-2.84218e-05][-1.32882e-05][-2.82044e-06][-6.7287e-07][0][0][-1.78385e-07][-8.57796e-08][-6.047e-08][-2.31001e-06][-1.44108e-05][-4.75787e-05][-0.000111668][-0.000218949][-0.000364993][-0.000491928][-0.000652469][-0.000930583][-0.00127603][-0.00147641][-0.00154072][-0.00133588][-0.0010125][-0.000785825][-0.000636718][-0.000438035][-0.000238679][-0.000101836][-3.94981e-05][-2.0384e-05][-9.26483e-06][-1.90529e-06][-1.62304e-09][0][0][-4.2912e-07][-9.24703e-07][-1.85895e-05][-7.68699e-05][-0.000186559][-0.000353162][-0.000593303][-0.000851586][-0.00112358][-0.00150623][-0.00201006][-0.00246616][-0.00272542][-0.00275777][-0.00253509][-0.00212322][-0.00166786][-0.00122826][-0.00079936][-0.000428481][-0.000182201][-6.95669e-05][-3.72227e-05][-1.48926e-05][-4.03663e-06][-1.65428e-07][0][-7.63964e-08][-2.73082e-07][-8.82009e-06][-5.59224e-05][-0.000177293][-0.000344604][-0.000574753][-0.000853912][-0.00114199][-0.00148806][-0.00194192][-0.00247584][-0.00297645][-0.0032745][-0.00344475][-0.00323771][-0.00289762][-0.00244436][-0.00182097][-0.00120921][-0.000677693][-0.000322039][-0.000121317][-5.257e-05][-2.59232e-05][-8.18829e-06][-6.30505e-07][1.69741e-08][-1.39643e-06][1.82144e-06][-1.21358e-05][-8.06919e-05][-0.000214913][-0.000361784][-0.000526861][-0.000622122][-0.000786777][-0.00109318][-0.00151823][-0.00202123][-0.00243052][-0.00261519][-0.00269435][-0.00247496][-0.00226876][-0.00211898][-0.00181386][-0.00130862][-0.000794755][-0.000407194][-0.000186081][-9.05185e-05][-2.88612e-05][-7.58263e-06][-4.62778e-07][3.75065e-08][2.67886e-06][1.09256e-05][1.72766e-05][-2.25733e-05][-0.000115502][-0.000173672][-0.000149973][-7.0068e-05][-0.000110374][-0.000357922][-0.000792682][-0.0012871][-0.00151187][-0.00152995][-0.00137804][-0.00118323][-0.00106416][-0.00121238][-0.00142471][-0.00122704][-0.000834032][-0.000502458][-0.000272907][-0.000134801][-4.712e-05][-6.89029e-06][-1.26316e-06][1.33775e-08][4.3692e-06][2.28477e-05][5.56916e-05][6.57181e-05][5.29893e-05][7.65228e-05][0.000171451][0.000294135][0.000233577][-8.9246e-05][-0.000561274][-0.000976365][-0.00114478][-0.00100646][-0.000695064][-0.000428139][-0.000364751][-0.000629063][-0.000965814][-0.00104369][-0.000849259][-0.000600848][-0.000370219][-0.00015477][-3.53712e-05][-5.5204e-06][-6.99997e-07][2.55235e-09][6.56212e-06][2.81737e-05][7.6974e-05][0.000116055][0.000140141][0.000183457][0.00029116][0.00034484][0.00016504][-0.000257515][-0.000825606][-0.00123957][-0.00133283][-0.00109991][-0.000731241][-0.00034777][-0.000199119][-0.000374788][-0.000649968][-0.00088007][-0.000840935][-0.000710186][-0.000462719][-0.000177122][-2.59009e-05][-4.8367e-06][-6.33477e-07][7.8909e-08][7.00031e-06][2.7441e-05][6.31349e-05][0.000100682][0.000118442][0.000121453][0.000201518][0.000166357][-0.00013519][-0.000669129][-0.00141084][-0.00185527][-0.0017885][-0.00153655][-0.00118101][-0.000722303][-0.000407625][-0.000282978][-0.000557145][-0.000787513][-0.00083004][-0.000772822][-0.000533276][-0.00019778][-2.3739e-05][-5.68685e-06][-4.87365e-07][2.24781e-07][4.28588e-06][1.83714e-05][3.78583e-05][6.75278e-05][4.94235e-05][7.03258e-06][1.05903e-05][-0.00012988][-0.000511957][-0.00124695][-0.00210618][-0.00242933][-0.0022888][-0.00206944][-0.00171002][-0.0012416][-0.00070263][-0.000427153][-0.000614881][-0.00080729][-0.000864456][-0.000796807][-0.000564484][-0.000212483][-1.36583e-05][-1.43107e-06][-2.29366e-07][-6.18509e-10][1.01373e-06][7.35987e-06][2.19421e-05][4.41691e-05][-2.09169e-05][-0.000113718][-0.000225163][-0.000430311][-0.00089018][-0.00177078][-0.00252442][-0.00272387][-0.00262434][-0.00243261][-0.0021336][-0.00171947][-0.00112236][-0.000894428][-0.000860325][-0.000912228][-0.000909955][-0.000818213][-0.0005837][-0.000228654][-1.33508e-05][-5.81523e-07][4.66988e-08][7.04747e-08][-9.19642e-07][2.13692e-06][1.51868e-05][2.00285e-05][-0.000116419][-0.000233639][-0.000411684][-0.000687139][-0.00127271][-0.00206907][-0.00252838][-0.00264237][-0.00256598][-0.00243393][-0.00207509][-0.0016148][-0.00125081][-0.00119909][-0.00123643][-0.00114285][-0.000964979][-0.000811163][-0.000567764][-0.000236453][-2.26379e-05][-2.56121e-06][1.55644e-08][2.69975e-08][-1.64187e-06][-1.32362e-06][1.54056e-06][-3.09559e-05][-0.00023895][-0.000389093][-0.000545446][-0.00080996][-0.00138234][-0.00201121][-0.00224455][-0.00220487][-0.00200025][-0.00172864][-0.00116976][-0.000763306][-0.000790849][-0.00130504][-0.00165177][-0.00147477][-0.00111599][-0.000834329][-0.000567058][-0.000223576][-3.20405e-05][-3.48677e-06][-2.97518e-07][2.24098e-08][-1.04793e-06][-6.43565e-06][-1.50454e-05][-0.000113729][-0.000413927][-0.000591912][-0.00068272][-0.000903697][-0.00137426][-0.00175614][-0.00183699][-0.00161887][-0.00127598][-0.00080115][-0.000178614][5.67008e-05][-0.000400621][-0.00149094][-0.0021293][-0.001826][-0.00127311][-0.000879278][-0.00054095][-0.000203059][-4.55117e-05][-7.24178e-06][-1.93477e-06][0][-2.62561e-07][-9.00845e-06][-3.96791e-05][-0.000243703][-0.000615563][-0.000832354][-0.000890658][-0.00111587][-0.00156108][-0.00184518][-0.00176356][-0.0014187][-0.000905255][-0.000290585][0.00022887][0.000215837][-0.000674164][-0.00204441][-0.00264954][-0.00209446][-0.00137558][-0.000898788][-0.000469397][-0.000164804][-4.04416e-05][-5.50811e-06][-8.47336e-07][3.31689e-08][1.66365e-07][-1.0592e-05][-7.66833e-05][-0.000349733][-0.000788832][-0.0010426][-0.00115852][-0.00145528][-0.0019805][-0.00238625][-0.00218937][-0.00161556][-0.000879683][-0.000261558][-4.47228e-05][-0.000470316][-0.00155922][-0.00274079][-0.00284422][-0.00208694][-0.00132951][-0.000786774][-0.000371816][-0.000114074][-2.38333e-05][-2.34048e-06][-3.07017e-07][-1.57453e-12][-1.04298e-06][-1.48256e-05][-0.000101421][-0.000393883][-0.000881417][-0.00119719][-0.00143304][-0.00182779][-0.00248495][-0.00295909][-0.00274819][-0.00210262][-0.0013226][-0.000882033][-0.00095291][-0.00157724][-0.00250518][-0.00303835][-0.00258558][-0.00177693][-0.00113004][-0.000642734][-0.000284909][-8.74942e-05][-1.84763e-05][-3.84187e-06][-1.58787e-07][0][-2.41983e-06][-1.94016e-05][-0.00010308][-0.000369205][-0.000860799][-0.0013258][-0.00169526][-0.00218461][-0.00281812][-0.00330128][-0.00323454][-0.00275438][-0.00219145][-0.00191248][-0.00201469][-0.00242588][-0.00271935][-0.00258839][-0.00197171][-0.00129116][-0.000793452][-0.000432583][-0.000187745][-6.58265e-05][-1.39874e-05][-3.22717e-06][3.06426e-09][-7.95224e-12][-1.68154e-06][-1.9347e-05][-8.24519e-05][-0.000256713][-0.0006797][-0.00125734][-0.00180435][-0.00230593][-0.00285628][-0.00324329][-0.00335982][-0.0031537][-0.00271542][-0.00241355][-0.00219561][-0.00203365][-0.00183577][-0.00160684][-0.00118638][-0.000739159][-0.000429163][-0.000213939][-9.45698e-05][-3.49207e-05][-3.45541e-06][-1.7155e-06][-1.08016e-13][-7.70373e-12][-5.46785e-08][-1.89483e-05][-5.99632e-05][-0.000165869][-0.000446323][-0.000952546][-0.00151195][-0.00202858][-0.00249116][-0.00278192][-0.00291149][-0.00270358][-0.00216268][-0.00154726][-0.00104303][-0.000727243][-0.000708992][-0.00073178][-0.000577638][-0.000348892][-0.00017794][-8.8886e-05][-4.35829e-05][-1.2138e-05][-1.77228e-07][1.51464e-09][-1.99413e-13][0][0][-9.37863e-06][-3.93884e-05][-0.000106192][-0.000256977][-0.00056796][-0.000999727][-0.00141877][-0.00177483][-0.00198253][-0.00205444][-0.00176447][-0.00119546][-0.000548373][-4.61672e-05][0.000143545][-3.91888e-05][-0.000208206][-0.000222773][-0.000128701][-6.68033e-05][-2.78155e-05][-1.31131e-05][-4.70218e-06][-5.31784e-07][-2.71502e-07][0][0][0][-7.56993e-07][-9.60419e-06][-4.11867e-05][-0.000104003][-0.000212567][-0.000378314][-0.000567748][-0.000737492][-0.000783648][-0.000694242][-0.000448489][-7.43928e-05][0.000332701][0.000547671][0.000496104][0.000231464][2.57084e-05][-6.35592e-05][-4.61372e-05][-2.12301e-05][-2.44871e-07][2.98722e-06][1.36031e-07][3.69343e-09][4.4423e-10][0][0][0][-1.37941e-09][2.18898e-07][1.62887e-07][-7.43792e-07][2.94073e-06][4.06461e-06][5.48242e-06][3.39391e-05][0.000119731][0.000262054][0.000410395][0.0005309][0.000588225][0.000619031][0.000503672][0.0002495][5.39288e-05][-4.13701e-05][-5.14834e-05][-2.75092e-05][-5.65033e-06][5.49264e-07][1.91915e-07][5.20708e-09][-2.14137e-13][0][0][0][0][6.73244e-09][1.07647e-06][3.14063e-06][1.38137e-05][3.20321e-05][6.28612e-05][0.000109539][0.000183901][0.000229676][0.000279865][0.000282691][0.000295104][0.000293698][0.000247863][0.000156812][5.25743e-05][-6.96313e-06][-1.92328e-05][-7.042e-06][1.95086e-07][3.14612e-07][-1.40075e-07][7.67965e-09][0][0][0][0][0][0][-1.16803e-10][2.36694e-07][1.47652e-06][3.36014e-06][7.11903e-06][9.67837e-06][1.99561e-05][2.53094e-05][3.08157e-05][4.42779e-05][5.80796e-05][5.73341e-05][4.29613e-05][2.90385e-05][9.22006e-06][-2.38991e-07][-8.87313e-07][-7.91366e-07][-6.94993e-08][-1.72275e-08][0][0][0][0]
Neuron=10 weights:
